P46934,-3.312,-5.97,-3.86,-19.25,-0.11914,-4.812,-4.562,-3.875,0.0996,-14.81,5.312,13.94,11.125,-11.0,0.801,-2.547,-15.125,16.62,17.38,17.88,7.0,14.69,-3.672,7.97,3.75,-11.56,-2.719,11.0,4.375,-6.562,-7.156,-14.69,-12.125,-6.25,-11.44,3.203,10.19,-2.547,12.875,-24.62,-10.875,4.97,8.06,-1.539,9.875,11.625,-2.062,11.625,0.1533,12.44,-13.5,0.1348,2.984,-18.62,9.19,-15.625,19.25,7.28,9.56,5.25,-14.375,-16.12,-11.19,-7.0,-9.81,-12.94,-6.438,-5.906,-2.047,7.22,12.875,-4.22,7.906,-4.812,-12.44,-7.094,-2.734,-4.53,7.938,9.625,19.25,-8.125,-4.5,5.906,35.0,-5.438,3.172,-9.81,-1.281,-8.31,-9.69,9.125,15.31,-20.0,-26.12,8.56,0.875,-34.75,47.5,2.297,-10.625,-35.25,-20.25,-12.69,1.5625,-5.47,0.3945,2.125,1.172,20.62,17.38,-6.97,9.75,0.699,-9.625,-8.625,-0.992,5.78,3.125,15.19,2.625,-1.109,14.19,-20.12,-9.5,-4.094,12.06,-0.02344,-16.5,0.711,21.5,12.0,11.625,16.88,-2.062,-14.81,-4.72,3.672,1.281,-1.805,7.375,-0.5,-3.156,9.19,3.453,6.188,15.06,10.0,0.508,-3.469,-12.31,-18.62,4.03,-8.81,2.344,-3.281,0.2002,14.06,-2.14,15.81,-6.78,-13.81,-5.594,-1.352,16.88,12.125,-7.562,-19.0,6.562,-17.38,10.875,8.875,0.7656,148.0,-3.062,12.0,-1.547,19.38,34.25,-4.094,1.0625,-8.375,-3.938,-1.875,-4.938,2.828,9.69,6.562,16.12,7.344,13.125,13.44,11.31,1.516,-11.44,-3.594,4.47,10.375,-0.6836,8.625,-24.75,-0.9844,12.375,-4.156,4.72,4.625,-3.86,-19.88,-1.609,-7.938,-0.797,3.953,-30.88,10.625,-3.281,-11.75,-16.5,2.125,-19.62,-8.81,6.78,24.62,6.188,-23.0,0.758,-11.375,1.891,-1.672,6.406,-0.3633,1.297,-15.44,11.06,10.5,19.88,27.75,3.5,-4.28,16.12,-14.0,-8.06,-8.19,6.22,20.25,12.69,-10.69,6.906,26.12,-15.625,-2.969,16.25,-0.6094,-14.56,8.5,-4.72,-14.5
Q9BRK5,-3.89,-0.949,1.609,19.38,-15.31,-11.5,1.359,3.781,-0.3535,2.156,-1.414,-0.1602,-4.0,-1.82,13.06,11.19,-2.375,2.375,8.375,-6.188,-0.824,-7.0,3.672,-15.75,4.125,-10.625,11.75,5.406,-0.1279,-11.75,0.332,-14.375,-12.75,-4.938,-26.12,-9.94,12.375,-0.754,-14.625,-11.69,-5.22,5.28,-9.06,-10.25,-5.312,-11.69,-17.12,13.44,11.56,3.656,-4.375,7.344,-5.906,-2.156,-4.22,3.11,5.344,4.688,-7.594,19.0,0.4102,-17.75,-3.61,-9.06,4.438,4.844,-9.44,5.188,19.38,5.5,36.25,-6.562,3.0,-15.69,-5.5,-13.125,-12.125,5.78,-3.016,11.19,21.75,8.875,-8.25,3.594,33.0,6.562,2.547,-1.3125,4.688,-11.81,-4.28,9.875,-0.1562,-4.438,-10.125,-1.523,12.94,-41.0,30.38,20.25,-6.375,-35.0,-17.38,-4.72,-9.375,8.625,9.125,-5.5,-20.75,13.375,-1.586,-14.44,-0.7656,-12.75,-6.47,-11.19,-11.81,2.64,-2.969,1.734,11.875,-3.938,12.5,-9.56,11.875,-6.906,17.0,-17.25,5.25,4.0,22.25,-12.125,8.25,14.19,13.125,-24.75,5.844,-7.03,0.949,-3.969,14.875,4.688,-1.43,-3.281,-17.75,11.5,7.28,-10.375,10.375,20.75,-15.75,-8.75,14.875,8.06,-12.06,-2.625,5.688,-7.812,4.375,10.25,0.4688,20.5,-5.438,1.758,9.44,23.5,-8.94,-13.25,2.984,-13.0,1.9375,10.875,-7.562,131.0,-9.25,-11.25,-7.656,7.406,44.25,-14.25,-8.5,-12.44,-23.0,-4.5,-8.25,-7.062,-3.125,13.69,10.06,2.75,-0.9375,11.375,-6.25,5.438,-20.5,21.75,25.25,13.375,11.5,6.125,-13.75,-6.78,-2.328,-9.56,-6.03,-9.25,-23.62,-13.94,-16.88,-3.688,-14.0,-11.06,-20.88,11.875,2.61,-21.25,4.25,17.62,-15.06,-1.477,-0.4336,11.25,8.125,19.88,-15.25,-23.38,-15.69,-3.672,-20.0,10.06,-9.06,-2.156,-16.0,7.875,18.62,-9.625,-11.69,-6.594,17.75,2.625,-3.61,1.75,1.469,20.88,0.5938,-11.69,1.711,-4.656,3.078,10.875,26.62,5.22,7.344,-6.594,8.375,-17.62
O75643,-2.438,-13.0,8.69,-5.78,-8.25,-11.375,0.6406,-11.06,-0.664,3.797,5.625,-8.75,8.56,-14.56,19.0,16.5,-9.0,17.88,10.75,-5.72,-5.188,6.594,-0.3828,-4.28,13.625,-6.438,-3.984,10.375,1.3125,-1.391,-12.0,-20.25,-4.438,5.188,5.625,4.72,1.008,-6.812,14.94,-18.38,-4.875,18.75,1.859,-4.22,-0.2461,4.312,-1.477,9.06,0.6445,9.875,13.0,0.5547,0.539,-5.344,11.06,-1.023,-0.8984,7.97,-7.97,2.781,-7.78,-23.12,2.688,-2.25,-10.875,-11.19,3.812,-13.125,0.5664,-7.25,11.0,-3.438,5.406,6.844,6.625,-9.69,-6.406,1.156,-14.56,-1.781,3.11,-4.562,-1.992,27.5,34.5,3.234,7.938,-7.344,-12.19,-9.81,-10.56,10.0,6.844,-15.44,-8.0,4.188,-1.0625,-10.69,65.0,7.125,-3.797,-37.5,-3.797,3.562,-1.008,-2.094,-0.547,8.06,-17.25,16.5,1.805,-6.688,2.188,-15.625,-2.031,-7.406,-9.25,-0.1807,-9.31,10.375,5.688,-7.344,-3.812,-19.5,5.906,3.688,-9.56,11.44,-8.625,-8.19,20.0,12.0,4.062,13.19,2.969,-23.0,-5.125,6.156,-3.61,-0.6406,3.375,8.25,-2.062,2.703,-7.75,4.938,7.28,-2.906,0.828,-7.406,11.375,-14.5,1.469,-9.0,-13.625,7.47,9.125,0.836,2.438,-9.94,-5.938,-3.672,-3.812,12.0,9.75,10.125,-1.242,-26.5,-1.484,-13.81,9.94,6.312,-0.3945,156.0,11.0,4.156,-5.75,6.938,37.75,0.871,-0.703,-3.89,8.875,3.312,-3.938,12.875,-5.72,5.53,9.625,-4.406,10.06,1.359,-3.828,5.625,-17.12,16.0,-3.297,4.188,-0.2695,3.0,-7.53,13.56,4.438,-1.008,1.602,6.28,2.219,-14.375,3.875,6.156,0.1729,-1.797,-3.312,8.81,-9.375,-23.5,-4.156,11.0,-25.25,-3.25,6.78,7.78,-6.53,-16.38,-12.31,-18.12,-2.484,1.148,-23.88,-3.969,13.125,4.78,8.81,7.375,8.25,12.375,-2.234,-16.75,9.31,3.828,11.625,-9.31,-6.062,30.88,13.56,-19.0,15.56,10.625,-7.406,-5.75,14.06,9.25,-0.3398,-0.961,-11.06,-9.125
Q8N7H5,0.1719,0.582,1.68,2.656,4.406,-7.438,3.094,-4.53,2.86,2.031,9.875,-8.44,27.38,-6.844,22.38,12.19,-14.0,20.38,7.625,-12.56,-6.875,0.9453,-13.94,-9.0,20.75,2.344,2.984,8.375,-2.172,-0.879,-4.97,-32.75,-12.94,-1.156,9.875,0.07324,18.88,-11.875,-3.062,-18.88,-1.547,6.094,-0.3438,-7.688,-12.5,13.94,4.312,25.0,0.8555,31.25,6.72,-8.875,5.78,-4.156,15.75,3.938,3.688,15.81,2.344,23.0,-8.375,-11.19,0.836,-5.844,4.812,-20.0,-8.19,-29.25,4.188,-9.81,20.62,-2.516,6.344,21.0,14.44,-5.0,-3.438,9.44,-5.22,-0.7656,5.438,-6.22,-9.875,24.12,30.38,-6.97,38.0,-29.5,-1.297,-5.062,-12.56,4.594,4.03,-6.53,-4.438,8.75,6.438,-15.69,70.5,9.75,-14.31,-32.75,-27.12,2.062,-15.875,-10.125,3.094,-2.047,-13.125,32.75,4.406,-9.06,23.25,-5.125,-26.5,-8.19,-3.453,-2.5,-3.86,-0.6797,5.438,-18.0,5.125,-30.12,2.453,-13.75,-12.69,7.47,-13.0,-3.188,20.88,16.5,14.56,9.75,6.53,-15.56,-2.562,6.72,-5.312,11.69,9.44,16.62,2.312,6.375,-9.31,6.125,5.28,-5.312,-6.375,7.156,-0.293,-22.12,7.47,4.875,-7.125,-5.562,12.375,2.64,9.5,-2.047,-9.75,-12.125,-14.06,9.0,12.81,16.88,-14.75,-25.12,1.039,-15.25,4.625,5.25,-6.062,168.0,25.12,2.36,-13.25,8.31,49.75,14.125,3.11,10.25,-0.664,7.28,2.031,-8.125,-8.06,-2.094,-10.375,22.12,5.906,0.8086,-5.28,-0.7656,-18.5,14.5,5.0,3.375,-14.81,-1.781,-17.0,2.031,24.25,-15.44,-2.953,14.94,-0.1562,-47.5,-11.19,7.344,-0.5586,-4.72,-14.5,6.0,-16.5,-28.12,-25.88,-4.47,-18.62,-15.875,0.3457,12.625,-10.125,-17.0,-10.56,-27.38,-4.844,5.22,-18.38,-1.672,28.88,-5.188,6.094,-2.094,26.0,7.812,-0.01953,5.0,7.25,-14.75,4.75,-18.0,-4.5,32.5,17.12,-2.734,21.62,11.75,-9.44,-2.61,26.25,-1.594,-7.656,7.25,-4.844,-10.375
O60524,-6.562,-7.094,4.78,-6.844,-13.81,-8.5,6.47,-4.594,-0.785,-4.594,4.812,0.793,5.03,-9.625,-2.219,12.69,-10.06,16.62,8.375,-4.625,-0.4766,-1.094,9.44,-0.871,1.172,-17.12,6.656,9.56,-2.703,-2.219,-4.594,-2.14,-5.406,-1.305,0.3086,-9.94,1.078,-7.312,6.156,-16.62,-9.625,9.125,-0.4375,-3.64,15.75,-6.844,-7.438,16.38,7.438,4.906,1.227,-0.699,-5.25,-3.172,-3.375,-0.3555,11.125,12.125,-1.4375,-5.438,-0.125,-11.25,-9.875,-3.828,-13.69,10.44,-9.44,-4.03,0.4277,-0.2129,19.75,-5.406,11.125,-18.5,-3.0,-17.38,-9.19,4.25,-2.375,10.0,4.72,-6.375,-1.859,8.94,37.5,1.82,20.62,-10.06,-5.72,-12.5,-12.06,7.188,1.727,-10.0,-13.75,11.44,1.6875,-28.75,53.25,4.25,-4.25,-25.62,-6.97,3.516,-4.5,1.406,8.375,0.914,-12.75,7.875,6.594,-0.2217,11.875,-11.94,-6.53,-13.375,-9.375,5.188,-1.789,8.19,-7.22,-0.715,-1.422,-22.25,-13.75,4.78,-0.4688,-2.172,6.72,5.72,15.31,10.625,9.5,18.5,4.72,-9.375,-8.31,0.1357,-9.625,-0.828,5.0,-6.5,0.9844,-2.172,3.078,4.97,11.31,-3.922,11.625,2.969,-2.547,-5.594,4.438,7.594,2.938,-10.625,-1.68,-0.02441,10.625,2.469,-5.5,0.0293,-3.766,2.188,11.0,22.62,-5.188,-16.5,-5.875,-14.625,-10.56,6.03,-12.81,163.0,-4.938,2.094,10.75,8.06,28.75,-7.438,-4.844,-4.938,3.062,9.31,-11.875,5.438,7.688,5.812,1.398,-2.734,-3.25,4.125,8.375,-3.0,-20.25,12.19,7.53,-0.01563,11.25,1.5625,2.61,6.28,11.56,-2.828,4.375,3.75,1.031,-16.75,-10.75,0.2305,-1.805,4.906,-12.75,0.5625,10.19,-11.06,-2.36,6.938,-13.81,-16.5,1.719,16.5,4.03,-30.0,-21.25,-21.75,-6.156,-3.781,-13.0,6.062,2.375,-4.22,3.922,14.06,-0.01172,-0.5,-5.594,-9.44,0.007812,-11.25,1.8125,-6.656,11.5,35.0,6.5,-16.12,1.609,7.594,4.688,-0.254,24.75,8.5,-17.5,0.7383,-3.64,-18.75
Q02040,1.133,-3.906,3.875,-8.31,-13.81,-16.12,1.289,-17.38,1.633,-4.125,10.375,15.44,12.94,-15.81,18.12,15.56,-14.31,27.75,12.0,5.938,-8.19,4.03,-7.094,-12.5,19.38,0.707,8.19,12.875,-4.312,-6.78,-12.94,-36.75,-7.312,0.8906,3.203,5.0,4.0,-4.5,6.938,-27.25,-6.47,12.69,5.188,6.062,1.547,-4.375,-0.02002,15.75,6.344,15.81,4.938,-14.69,9.69,-10.625,14.625,-5.688,-1.391,7.78,15.44,10.25,-4.22,-16.25,-5.188,-7.78,-8.375,-19.75,-3.61,-22.88,-0.801,-9.94,17.88,-18.0,14.31,-0.03906,-0.785,-3.719,-7.438,13.0,-1.383,6.562,13.06,-7.75,-3.64,37.25,39.75,-8.5,30.0,-15.875,-6.438,-17.12,-0.8945,-0.9414,-0.508,-26.0,-8.56,7.75,3.344,-13.625,67.5,6.97,-4.25,-32.5,-26.75,-0.2695,-1.703,-22.12,10.31,4.0,-18.38,28.75,4.72,-2.594,17.12,-9.875,-5.125,-15.94,-9.75,-7.625,-8.19,15.5,16.62,-12.56,-1.141,-30.75,-5.188,-14.625,-16.88,1.125,-14.125,-12.375,21.62,18.88,7.906,21.0,-3.89,-26.38,-4.47,0.797,-11.625,-9.06,4.812,-0.5547,-5.438,0.828,-7.125,-2.39,3.61,-3.797,-5.188,6.375,10.25,-9.19,6.53,-6.406,-9.31,4.0,0.8125,-6.72,10.69,-10.875,2.219,-20.12,-10.81,4.72,15.625,14.81,-16.0,-32.0,1.023,-13.94,6.53,4.656,-4.344,146.0,3.703,12.44,-4.53,10.31,50.25,9.0,-3.688,-8.69,7.22,8.44,-2.438,-1.484,8.69,12.375,1.266,15.19,8.875,1.969,-1.547,7.438,-9.25,11.06,5.03,5.875,1.07,5.312,-21.25,11.75,17.5,-12.44,5.406,13.19,-13.125,-29.0,-6.47,6.844,1.672,8.125,-17.25,3.016,-7.938,-24.5,-14.25,4.97,-27.88,-1.008,14.0,19.0,-7.25,-7.0,-4.656,-11.5,5.5,-0.6836,-22.75,3.844,32.5,0.5195,15.625,-1.609,23.12,7.156,-2.406,1.406,18.88,3.688,7.156,-14.31,-1.945,32.5,22.38,1.008,16.38,11.31,-10.81,-14.31,16.12,4.0,17.62,-11.0,-1.797,-4.78
P02749,7.812,11.875,18.0,24.38,9.81,-3.922,4.78,-5.375,11.75,18.12,-7.312,0.703,7.156,5.812,-4.97,11.19,11.125,17.25,15.56,-3.562,15.5,-15.81,9.06,-0.7266,15.69,-5.53,0.1328,6.344,27.62,-0.6055,9.375,-7.594,-19.75,14.44,-20.75,-0.8203,9.625,-14.75,-0.379,6.72,-9.06,25.88,-7.75,-4.188,8.31,-0.1738,-8.94,-10.875,18.12,-18.5,-4.5,-9.94,-1.055,-12.875,-20.75,-5.938,13.44,6.28,-4.53,17.25,5.312,-12.56,-1.523,-2.61,3.0,-2.094,1.625,3.375,8.81,-14.69,8.5,5.25,-7.406,-27.62,6.062,-19.12,-19.88,-5.438,-8.56,7.22,17.12,9.44,4.844,-6.75,15.44,3.61,1.984,-23.62,0.10547,1.18,-24.88,10.875,2.828,-23.62,-16.5,-0.379,14.81,-13.875,57.75,9.94,-13.5,-29.88,5.094,0.8086,4.312,5.594,6.75,7.625,-16.0,-0.961,-15.25,-14.31,-22.75,-6.53,-4.625,2.016,-22.88,4.406,1.828,-9.875,10.0,-3.5,21.75,-17.88,5.156,12.06,8.19,-4.062,10.375,16.88,16.62,-10.25,5.625,10.06,11.375,1.641,4.188,-10.56,-7.688,1.109,0.2344,17.5,-0.9688,-5.312,-0.5625,-0.961,1.648,-8.5,7.72,36.25,-3.094,-1.5625,-0.4375,8.25,-11.75,8.25,11.06,5.25,-2.438,-1.672,-10.19,0.9297,7.625,11.625,1.891,22.88,-12.5,-4.25,5.062,6.594,-5.25,0.2812,2.0,113.5,0.8867,-6.78,-7.875,-1.117,30.75,3.984,-19.5,-12.31,-13.125,-9.56,3.422,13.75,4.78,0.5977,6.72,-2.031,1.117,1.195,-6.844,27.88,-12.125,27.0,11.375,13.875,-2.688,-12.875,-20.25,16.62,-10.0,-8.25,-0.8984,4.156,-3.234,-11.56,-0.8047,10.69,-24.88,-25.88,-6.562,7.5,-23.75,-10.5,15.75,22.5,-1.906,0.6016,-9.06,20.25,16.38,-3.219,-12.125,-5.53,-12.75,-4.625,-13.375,-10.75,10.19,2.266,2.188,-9.69,12.44,-7.938,3.078,-5.72,-8.94,4.875,-1.75,-6.906,7.312,12.875,2.016,-5.312,8.0,-3.062,-4.562,4.094,22.25,-1.586,-9.69,13.19,8.19,-7.625
P55036,-5.312,-4.97,-13.0,-4.125,-7.72,-18.5,3.594,-11.625,10.94,-2.719,8.44,13.25,-4.656,-14.19,5.188,1.922,-6.156,40.25,23.5,2.594,-3.531,-3.938,6.5,-17.38,5.188,-10.0,1.0625,-7.75,-13.19,7.688,6.406,-17.75,-6.375,3.688,-1.797,-9.0,6.688,-5.78,11.25,-10.625,1.0,-8.75,4.812,-3.75,4.78,-15.5,1.297,4.094,9.625,11.06,-4.47,-4.094,11.31,3.984,-0.9883,-2.531,15.19,24.5,4.438,2.75,4.656,-26.12,-10.25,-14.81,3.39,7.656,-4.438,-6.22,-3.188,-16.62,10.5,-8.0,2.36,-18.88,-13.125,-14.44,-14.5,10.81,-16.12,0.1216,2.188,-7.938,-1.414,15.19,37.5,9.375,29.62,-12.875,-3.984,4.938,1.852,7.25,7.156,-13.0,-7.156,2.328,-3.39,-0.9297,53.5,6.594,-14.69,-31.0,-13.625,13.94,3.64,-5.344,15.94,-14.94,-9.625,9.625,16.0,-17.12,16.25,-6.438,-5.25,-3.11,-7.094,0.2383,-8.5,3.219,15.375,-18.88,-7.062,-24.12,8.69,5.625,-1.5,-5.875,16.62,0.4258,9.25,-1.898,2.39,5.375,14.94,-18.38,1.781,8.875,-9.19,-4.22,-1.945,-6.594,-9.31,0.535,-9.06,-10.56,-0.574,-14.0,5.375,13.69,0.3281,-6.656,14.125,8.875,-0.633,-4.78,-3.61,-0.953,6.03,6.5,7.812,10.0,-9.875,12.375,11.125,16.62,-14.19,-19.5,-13.5,-24.75,-6.78,10.69,-16.38,135.0,-5.03,-5.28,3.578,-1.8125,33.75,-15.56,-9.75,2.094,-2.672,-4.406,-1.93,7.438,6.562,16.38,-5.062,13.0,2.281,-3.344,18.0,-10.875,-14.19,9.94,7.53,8.94,13.0,3.125,4.875,17.62,20.0,-1.094,-5.562,-4.97,-17.62,-28.0,-5.03,10.06,-0.1011,10.06,-21.62,-2.75,9.5,-26.62,4.688,13.5,-2.188,-7.406,4.875,16.25,5.75,-18.12,-19.5,-12.0,-4.375,6.25,-17.62,4.938,1.016,2.875,17.25,1.0,7.97,-6.0,-12.875,-6.72,0.1836,12.625,-9.25,-11.375,10.125,42.0,15.56,-7.78,-3.188,13.56,-2.594,2.219,15.06,8.5,-21.62,-1.602,-10.75,-3.297
Q9UHD8,-11.5,1.594,19.38,2.578,24.75,5.22,-1.211,-5.094,15.125,21.0,-23.0,12.69,2.14,-5.844,-9.0,11.69,11.69,7.125,8.5,10.375,-0.0547,-6.062,5.688,-27.88,3.297,-19.75,-13.875,14.81,-0.7227,7.344,8.19,-1.57,-23.5,9.625,-8.625,-3.438,0.3281,7.22,-9.625,-0.4844,-6.938,12.125,-3.734,-15.0,15.69,-1.766,-9.5,-3.875,-4.938,3.812,8.625,-5.5,8.69,0.1758,-14.44,-12.25,15.5,2.953,-8.06,-15.19,10.5,-15.81,-1.086,4.094,-31.75,-5.594,-8.125,2.36,4.438,-1.1875,-5.812,-16.12,-8.81,-13.19,15.5,-35.75,-14.69,-4.656,-15.0,10.81,14.125,19.75,-10.875,-6.625,34.0,7.125,-3.64,-8.31,10.31,13.56,-11.625,24.62,23.12,-6.625,-9.06,3.312,-12.19,-35.25,58.5,1.078,-31.62,-23.38,-5.312,23.88,14.19,12.81,-8.94,6.812,-8.75,16.0,-12.56,-14.06,-9.25,-19.0,-0.922,0.996,-11.94,13.81,-1.656,-1.57,11.5,32.0,-14.75,-27.12,3.75,0.996,4.156,8.06,15.625,-7.062,-1.977,-2.375,-2.89,3.469,19.38,-12.56,-2.766,-0.1172,1.25,-7.094,4.812,13.06,11.69,7.125,5.812,2.25,-6.938,1.578,2.844,20.5,2.828,-6.25,12.75,7.47,9.56,10.94,-1.898,1.82,12.5,2.516,-6.438,14.81,0.6914,20.0,-3.75,31.25,-0.10547,-7.22,-18.5,8.375,10.06,-5.47,-15.06,157.0,6.375,2.734,8.25,-17.62,23.0,-25.88,-2.312,3.14,0.2734,-13.25,-14.94,12.625,9.625,4.28,7.562,-21.25,-8.25,3.11,-5.0,23.38,0.7266,29.5,-7.312,0.8164,-16.0,-6.0,-12.81,10.25,-4.78,-8.0,-4.53,9.25,-19.5,-24.88,5.5,17.5,-2.969,-6.53,-15.31,-0.3672,-28.75,-28.0,1.508,-1.602,-4.78,-12.75,-10.375,11.5,20.25,-3.031,-5.0,-6.53,-37.0,-1.8125,-5.5,0.6797,-19.38,23.25,10.125,-13.125,5.97,-7.78,9.875,-6.625,1.047,12.56,16.88,16.38,3.297,25.62,5.875,-6.25,2.906,-4.812,-3.188,19.62,15.625,7.812,-10.94,-9.0,11.19,-6.562
Q9UGY1,2.812,15.19,4.53,-2.031,-11.56,-19.5,13.5,-1.047,-0.379,-0.06445,-8.44,-5.0,31.62,7.03,12.19,-1.898,-23.62,18.0,7.75,2.938,-7.938,6.75,13.0,-20.0,-9.125,3.89,-2.89,9.19,17.88,1.922,-19.62,-25.25,2.281,-8.5,8.44,-5.72,1.711,-8.31,5.594,-26.88,-9.75,16.38,15.44,13.5,14.44,23.88,0.6523,26.88,0.2129,8.75,-7.625,-9.875,-0.07324,-9.56,16.5,-3.484,-13.69,13.0,-3.125,0.3945,-11.75,-11.31,6.188,3.672,-21.25,-17.25,-14.19,-18.25,-5.844,-10.81,12.81,-19.0,14.75,23.88,4.812,-6.625,-6.625,3.281,11.125,-3.86,-5.406,-12.56,-11.56,24.12,24.25,11.5,12.25,-18.12,-18.38,-30.12,-27.75,-7.03,-2.344,-7.094,-12.31,9.81,8.44,-12.0,49.25,16.25,-4.688,-36.5,-16.75,2.125,-0.2344,-4.25,-5.438,7.062,-4.062,6.875,20.62,6.938,21.88,-12.44,-19.62,-8.06,4.53,15.625,-0.7188,-0.2012,-15.06,-10.44,1.539,-29.62,1.172,-11.44,-8.25,14.25,-24.38,13.69,13.125,2.281,28.12,7.78,-2.156,-10.69,-8.06,17.62,4.656,-13.375,27.75,8.5,3.797,26.5,11.375,20.12,22.38,20.25,1.875,7.156,11.56,-11.56,8.56,-3.75,-6.22,-9.75,-8.56,9.5,21.62,-1.398,-17.38,-14.31,-20.0,11.0,14.69,1.906,-2.562,-34.0,9.31,-18.62,0.461,3.469,-0.8906,110.0,11.25,12.44,-3.734,7.875,23.12,16.75,2.453,-3.875,6.125,2.656,-0.5,4.625,0.2051,0.4766,4.625,15.625,-2.703,11.19,-1.203,-2.266,-6.47,0.03906,-2.0,9.06,-7.594,8.94,-16.0,-1.133,18.5,-4.03,-7.5,-0.7188,7.625,-22.62,9.5,3.906,12.94,19.75,-4.47,22.38,3.281,-37.5,-20.12,16.5,-6.938,-5.47,8.125,8.875,2.453,-36.0,-7.125,-39.25,1.148,2.266,-26.0,-2.25,3.547,-13.125,-3.453,11.875,25.25,12.44,9.56,-1.68,7.875,-16.38,12.125,-8.31,-17.88,34.25,12.81,-12.94,4.625,0.625,7.25,-12.56,30.38,13.625,4.625,-6.53,-2.938,-4.562
Q8IVT2,-15.44,2.266,-4.97,25.12,19.25,-7.375,18.38,17.62,6.438,8.875,-22.5,12.125,6.656,-10.56,2.75,7.75,10.0,21.5,-3.86,7.406,-2.422,13.125,14.25,-8.56,15.0,-7.562,-0.379,-1.406,-19.12,-4.688,10.31,-17.62,-19.88,2.656,6.906,-9.5,12.31,11.5,-7.375,-2.375,0.8203,8.25,-8.125,-2.297,-0.09375,2.0,-3.14,0.1562,-0.7266,7.094,13.75,-13.19,5.812,-19.12,-10.375,-12.125,2.219,3.578,10.31,-9.0,-14.31,-5.125,-11.0,-2.984,-21.5,-7.75,-12.81,-12.5,11.625,9.44,2.812,-2.875,-4.375,4.72,1.875,-10.31,-6.125,-1.484,0.629,-8.31,1.6875,21.25,-4.562,1.102,13.0,-2.016,-2.438,-9.0,5.125,-2.844,1.406,24.0,8.625,-22.0,-7.312,-3.39,-16.5,-4.875,54.5,-3.422,-3.266,-38.0,4.72,13.125,26.62,-4.938,-6.28,-0.7227,1.969,36.75,-7.406,-11.31,0.289,-14.75,-9.625,-4.406,-23.62,9.94,-12.06,-15.75,8.125,9.94,13.94,-28.25,9.25,0.508,-12.75,18.62,4.188,10.19,-10.625,-11.625,0.5625,-8.0,28.5,-6.344,1.508,0.8477,6.062,-6.28,-1.859,9.19,15.44,2.844,2.906,6.875,12.5,2.672,0.2285,14.375,22.25,-7.78,6.062,4.72,-14.69,5.406,6.344,9.375,11.5,-18.25,-17.12,-2.0,-24.88,8.125,7.656,31.88,3.625,-18.62,-15.31,3.766,18.88,2.797,-15.31,158.0,7.75,-5.062,-10.25,-20.75,37.25,0.742,7.906,7.97,1.5,2.016,1.305,-2.75,8.875,3.656,10.44,0.926,-2.531,18.12,-8.56,17.62,0.2285,7.062,4.094,10.81,-9.31,6.562,-21.0,-4.875,1.07,-7.906,1.828,8.875,-10.81,-38.0,-0.2578,10.81,-12.94,-4.938,-11.375,-2.766,-8.0,-15.125,-18.25,-1.539,-5.812,-9.69,-5.594,9.125,-3.531,6.72,-6.938,0.676,-20.12,7.156,-27.38,11.5,11.875,18.25,-7.188,-12.625,15.125,-6.094,9.06,-8.75,-6.72,11.19,11.06,8.81,0.3965,26.62,3.594,7.938,-1.328,3.781,-8.375,1.484,14.25,14.31,-11.625,-13.69,4.156,-3.844
Q8NBN7,5.188,-10.375,13.56,8.69,6.344,-9.875,-0.9766,-3.5,7.562,24.38,-8.06,-4.03,0.3125,-6.688,-0.412,4.406,7.062,7.875,3.766,-4.594,-2.953,-5.5,7.062,-5.438,9.875,-17.75,5.72,4.125,19.0,-9.19,11.625,-3.031,-14.375,1.9375,-17.25,-9.5,3.812,6.438,5.562,-3.938,-5.47,27.12,0.875,-1.336,8.44,9.0,-0.5273,8.69,7.47,0.789,-10.25,-0.922,1.57,-14.625,-1.406,-5.062,-0.8633,13.31,5.688,-0.5312,7.125,-17.75,-4.03,-13.625,-4.062,-16.0,-6.688,0.8906,8.56,-11.19,3.61,-7.78,8.5,-5.5,-3.844,-0.8047,-18.62,-3.922,-3.984,12.81,-2.047,9.875,-11.0,13.625,19.0,-1.492,-6.53,-10.0,2.86,-1.266,-17.25,30.62,0.1133,-27.12,-23.25,5.188,17.88,-2.625,44.75,7.22,-12.625,-47.0,-6.22,-10.44,0.3828,13.81,2.125,6.625,-15.94,4.906,-13.69,-2.0,-1.734,-5.0,-22.62,-8.375,-13.75,8.06,0.003906,-8.19,6.062,3.688,8.375,-20.38,11.69,13.69,0.672,-2.844,-16.62,14.25,-1.641,-9.19,2.547,16.25,0.75,-10.5,-0.336,0.4844,-1.531,5.344,7.062,11.19,8.375,3.578,2.562,9.19,14.56,-3.11,27.12,11.31,-0.4023,-4.78,10.44,-3.422,-1.57,10.69,10.625,13.5,-1.672,-4.03,-14.375,-4.312,-8.06,9.44,10.5,19.88,1.672,-14.56,-6.125,-3.531,4.156,0.707,-13.25,130.0,3.531,-3.5,6.188,-2.281,24.25,6.906,-7.375,-7.25,-6.22,-9.56,-8.94,17.75,12.875,10.69,9.75,-9.5,-0.535,16.12,-1.031,13.19,-6.656,13.625,-1.219,10.75,-2.406,9.5,-21.25,2.25,3.312,-20.5,7.438,12.625,-6.188,-10.44,13.19,-7.188,-18.0,-4.72,-3.5,-1.461,-20.0,-5.625,8.875,-6.906,-5.406,8.44,-10.625,17.88,10.94,-12.0,-3.453,-14.81,-9.69,-11.69,-20.75,-5.938,1.953,-0.914,-3.969,-0.8906,18.38,2.094,0.617,-6.188,6.47,-10.81,9.31,5.938,2.234,25.25,-5.156,-2.5,-1.523,-1.4375,-16.12,-2.312,20.88,-3.781,4.5,1.031,-4.625,-11.31
P61626,17.0,2.281,18.0,-0.01953,16.12,1.969,-0.703,-9.69,4.688,18.25,-0.633,3.016,23.5,5.0,-4.03,7.0,-15.94,6.5,6.125,-0.758,7.53,4.75,7.156,2.297,9.31,-5.906,3.219,11.69,33.25,1.102,-1.969,-7.062,-3.14,0.3047,-11.125,-19.0,-2.984,-4.625,0.165,-4.875,-14.25,16.5,-6.562,-2.781,5.188,3.312,-7.625,5.188,7.97,-2.734,-7.344,-9.625,-20.12,-13.25,0.5195,-12.81,0.287,2.125,-8.625,10.625,5.625,-1.68,0.1094,0.965,-9.19,-7.344,0.1875,11.125,16.75,-5.53,12.0,2.36,3.953,-11.19,9.5,-1.977,-24.38,9.19,-11.31,29.25,11.125,7.656,1.875,1.305,1.797,2.156,5.562,-14.44,-7.094,-12.44,-23.38,4.594,10.31,-22.0,-10.94,15.875,4.72,-9.0,45.5,16.0,-20.5,-38.25,-6.875,-2.031,-9.75,10.875,3.156,15.125,-23.0,0.504,-12.31,13.875,-2.719,-4.906,-9.375,5.188,-20.5,7.97,0.5625,4.812,8.19,1.398,4.22,-19.12,-19.38,1.8125,7.375,2.984,8.375,5.78,18.25,4.438,8.0,28.25,-8.44,1.539,-16.62,-1.773,0.375,-3.906,9.19,12.31,-4.312,-1.836,10.44,-11.44,13.375,-7.938,18.5,34.25,-4.906,-11.625,13.44,1.453,4.28,-0.10254,18.62,22.38,0.586,0.2227,-10.625,-1.383,-3.781,2.11,-6.0,20.0,8.5,-17.62,-4.97,4.97,-6.97,1.18,-14.375,85.5,-9.19,-21.25,2.656,11.375,11.06,4.5,-9.625,-10.31,-3.031,14.5,-11.0,12.5,3.078,13.94,7.625,-7.688,-14.5,12.625,-2.0,17.62,-8.375,15.75,11.5,15.19,-8.625,0.789,-17.38,-3.11,17.25,-5.03,14.125,13.0,-4.5,-12.31,3.406,9.875,-28.0,15.94,13.81,2.531,-32.75,0.2773,4.438,-1.508,-1.625,16.0,-12.875,20.0,12.19,-12.125,-6.625,-36.75,-5.875,-5.75,-20.88,-1.555,0.5703,3.61,-2.969,-21.25,13.875,3.062,9.69,2.438,0.9844,-14.06,1.945,-14.0,8.125,15.125,-5.25,7.312,5.875,-1.352,1.273,2.75,37.25,-8.19,-6.094,10.44,2.703,-18.25
P03971,6.062,-10.19,-4.625,-4.47,2.625,-20.0,3.297,-3.125,6.812,8.25,-1.531,1.1875,4.844,-3.797,3.797,6.375,-10.875,4.656,15.0,-3.562,8.06,-4.0,5.188,-0.965,0.1562,-9.875,8.44,12.56,24.12,7.844,-2.11,-8.125,-15.69,5.688,-21.75,-8.31,6.0,4.906,6.78,-17.5,-3.219,16.12,-1.031,3.75,11.56,11.31,-10.75,9.875,9.875,-8.0,-6.812,1.5,-4.312,-13.25,7.0,-11.625,8.44,15.06,-7.0,1.305,11.5,-12.0,6.875,-7.156,-11.125,-5.844,6.344,-12.56,3.047,-0.293,14.875,4.28,3.844,0.758,-0.871,-15.81,-18.0,-6.312,4.22,-1.9375,11.06,0.953,1.1875,11.19,24.88,2.188,0.084,-19.88,-5.5,-7.312,-18.5,18.88,9.06,-14.125,-10.94,3.234,-7.938,-14.875,57.25,13.75,-13.81,-36.0,-1.891,-3.125,2.984,3.906,8.44,0.992,-16.88,15.19,-4.062,7.22,-14.75,-16.12,-1.867,-13.375,-12.19,5.28,-5.125,-1.3125,6.22,-7.312,6.125,-18.12,-8.25,11.31,9.125,3.281,6.75,8.81,16.62,9.875,4.375,22.5,-1.68,-3.61,-11.06,7.188,-5.188,-7.47,14.375,1.609,-6.28,-5.0,-0.7656,17.5,11.69,-0.6797,10.81,18.62,-1.836,-10.94,-2.375,-8.0,-12.875,13.06,4.438,9.44,-2.812,-7.97,-20.88,4.438,-0.9766,11.375,7.72,20.88,-12.06,-7.688,0.2695,11.06,8.875,4.53,-13.31,120.5,-2.531,-5.03,11.56,5.47,20.0,2.5,-14.31,-6.344,-4.47,-0.1562,-2.922,14.625,8.125,-1.414,7.0,-5.47,3.469,21.5,1.383,16.38,-12.5,3.11,-5.938,2.969,-2.328,-4.438,-12.81,2.656,6.78,-1.445,3.406,14.375,2.656,-17.75,12.56,8.625,-13.125,7.312,-17.12,-2.203,-14.06,7.47,2.453,3.016,-26.0,1.297,-8.5,16.88,6.812,-10.19,-3.719,-18.25,3.781,-14.5,-23.12,-3.094,7.562,2.172,-1.484,-4.47,12.19,8.44,4.72,-5.22,6.47,-9.125,-10.19,1.4375,9.06,13.5,4.812,-7.344,5.594,-2.828,-2.61,-12.625,38.0,-3.328,6.625,11.0,-6.062,-6.0
Q9UBX3,1.594,-3.984,-0.01465,-6.97,-9.69,-19.38,-10.625,-20.75,1.164,9.375,13.31,4.78,17.5,-14.125,11.75,10.94,0.459,15.25,9.375,1.516,-10.0,3.781,3.422,5.094,6.594,0.375,-0.4023,18.38,20.75,3.25,-17.62,-18.75,-4.562,0.5234,-14.06,-4.25,-8.25,-3.953,9.75,-9.125,-5.062,17.75,3.25,-1.711,6.0,10.625,11.0,13.125,13.5,-13.19,9.5,-0.8906,7.03,-17.0,7.125,-0.4746,-5.03,-2.125,-7.0,6.78,-4.562,-27.25,4.938,-9.44,-1.43,-6.75,-0.3633,-6.625,8.19,0.2754,11.81,-1.156,8.0,0.6953,2.344,-8.06,-24.88,-1.016,-4.156,2.906,10.56,-3.453,5.906,17.38,40.5,4.97,23.88,-27.12,-3.172,-10.0,-8.5,-5.75,-4.688,-37.5,-3.766,4.812,3.0,-13.56,57.0,19.88,-8.69,-27.0,-5.094,-12.125,-5.72,-12.56,2.672,6.656,-24.38,20.12,-4.406,-17.88,-0.3398,-2.438,-2.484,-3.172,9.0,-3.234,-2.14,3.094,6.375,-10.81,-7.22,-7.72,9.25,-6.312,-11.44,3.516,-7.344,-4.188,17.0,6.5,12.31,13.69,-19.0,-17.12,-5.53,-2.234,-1.836,-7.656,2.656,12.19,-2.656,1.547,-3.672,9.75,8.875,-1.242,-2.922,14.75,11.375,-12.625,6.25,-14.81,-3.406,5.0,16.62,12.19,0.3984,-6.625,2.766,-6.062,-0.3867,13.25,-0.3281,0.879,-12.44,-16.12,-0.2422,-2.297,7.688,2.438,2.438,111.0,-7.188,2.234,4.188,-1.234,42.0,3.781,2.75,-2.297,2.797,12.125,-6.47,11.25,-8.06,20.25,16.25,-3.11,7.344,-0.01563,6.312,7.375,-12.375,23.62,0.707,9.06,-0.9414,2.328,-13.25,7.812,12.75,-3.219,-5.97,11.625,-5.5,-0.5234,2.734,10.625,4.938,8.56,-9.94,6.656,-10.375,-4.375,-1.969,10.69,-12.19,5.375,5.906,8.19,-8.5,-9.5,-10.75,-7.0,-0.6445,11.625,-12.0,-3.375,24.88,9.19,5.594,-7.688,6.78,1.594,5.906,5.094,9.25,2.406,-5.156,-5.094,-1.742,22.0,7.97,2.844,3.656,5.688,-7.594,-15.5,26.38,-1.484,20.62,-1.07,-3.36,-0.922
Q16718,6.156,-3.484,-6.75,-0.168,-16.25,-10.44,5.0,-28.75,8.81,-4.188,16.38,-3.094,13.5,-2.422,14.44,5.375,-14.19,12.625,5.53,-4.156,-18.25,-4.312,6.28,-9.31,10.375,-0.00586,5.03,4.594,7.812,-6.28,-28.0,-29.75,2.719,-1.891,-1.969,-9.06,-1.484,-9.625,-4.406,-19.75,-5.97,18.88,6.28,6.406,10.5,1.492,0.1846,29.25,8.81,17.12,6.812,-8.31,9.625,-1.039,21.0,-6.53,-7.906,13.69,2.625,23.62,-24.88,-18.38,6.844,6.625,-8.25,-33.5,-3.453,-12.56,12.31,14.19,8.94,-0.5977,10.06,6.906,4.938,-8.44,-18.75,11.56,-7.562,9.06,0.914,-3.156,5.125,26.38,40.5,5.53,32.25,-23.25,-4.406,-16.75,-7.03,-7.062,-3.297,-18.25,-7.844,-1.328,0.7734,7.188,51.5,23.38,-6.22,-39.5,-13.625,-8.19,-3.61,-14.625,5.594,-8.75,-24.25,37.25,2.297,-2.969,18.88,1.719,-1.297,-4.28,0.0791,-8.56,-7.0,8.94,5.125,-13.44,-1.281,-12.44,19.0,1.992,0.2051,4.062,-24.5,4.844,8.125,6.844,5.344,36.0,-10.69,-21.5,-9.125,12.0,-9.375,0.4922,15.375,-0.7344,-1.305,-1.523,-0.2656,2.984,16.38,-1.25,8.125,0.91,3.672,-20.62,6.97,-17.62,-7.125,-4.844,12.875,-0.4863,-6.812,-3.453,12.25,-10.75,-11.06,-13.81,13.75,-8.69,-6.125,-4.656,-9.5,-13.0,-5.22,11.75,-2.516,121.0,10.0,6.5,1.727,-0.7344,45.25,2.234,4.28,2.547,2.86,2.61,-10.625,1.344,-15.75,1.961,-5.75,12.125,14.81,9.44,5.938,-7.156,-16.75,8.06,2.906,10.5,-3.469,11.81,-19.0,0.2207,-1.055,-5.78,6.844,15.75,-1.016,-29.0,6.97,13.69,4.875,11.81,-1.125,0.373,-10.25,-18.25,3.5,-1.797,-3.156,9.19,6.844,11.81,-4.375,-14.125,0.9766,-11.69,1.25,-3.64,-1.43,-4.844,15.625,-7.094,-4.72,3.016,9.81,-8.125,0.4824,-4.28,21.5,-4.688,14.94,0.2139,-3.297,16.38,9.56,-17.0,11.06,-5.53,-4.72,-20.62,30.5,17.75,11.625,-4.688,-2.86,-3.766
Q16822,0.09375,-10.5,9.56,1.945,-8.375,-12.44,-5.344,-7.22,-2.547,10.0,3.375,2.266,1.875,-8.875,7.156,17.75,2.656,7.72,-0.2109,-14.75,5.22,-6.22,-3.984,-1.672,6.656,3.61,24.62,-1.18,-2.36,-5.22,-10.375,-12.31,-9.625,-1.391,-10.75,-4.875,4.75,-5.344,15.69,-15.19,-1.0625,9.31,-0.8047,-6.312,-6.312,-8.25,3.0,14.44,-3.875,10.06,10.125,-5.938,-3.594,1.695,10.0,-3.125,8.625,7.938,-9.44,7.0,-2.047,-10.94,3.781,-9.44,6.125,-12.25,-2.625,-10.56,18.38,0.6016,14.25,-4.844,4.906,-4.812,10.375,-11.06,-16.0,3.89,-4.5,15.31,8.875,-1.93,-11.125,15.81,41.75,-1.859,4.03,-1.359,-11.56,-9.69,-9.19,-2.938,-0.5664,-1.1875,-9.75,6.406,5.47,-36.5,47.25,16.25,-5.156,-34.25,-10.31,0.508,-10.0,-0.3848,6.062,4.906,-16.5,1.219,-5.22,-15.375,6.0,-9.44,-5.125,-1.5625,-9.19,-5.03,-0.867,4.0,15.625,-5.188,-5.062,-25.5,10.06,-6.844,3.86,-0.3477,-3.562,-5.0,20.25,-6.062,0.3906,12.56,4.188,-20.0,-4.062,1.141,-7.625,3.062,4.094,11.125,-7.47,-4.844,-11.81,20.62,18.75,-8.94,7.25,3.672,-6.25,-22.5,8.25,-6.875,-10.94,5.0,6.312,-4.062,-3.438,0.6562,-11.375,-0.5703,-5.094,8.19,4.875,11.5,-15.125,-20.12,3.594,-7.375,16.25,-0.4219,-7.53,151.0,4.688,-1.469,0.5938,8.69,38.5,5.97,-0.1001,-3.328,-0.789,-3.688,-17.62,3.672,3.578,-4.844,13.19,1.805,6.094,6.5,-7.03,4.938,-13.375,7.22,1.797,2.344,3.453,6.938,-24.0,0.582,2.719,-2.906,-1.414,4.438,-10.69,-9.19,-5.5,-8.0,-1.969,7.188,-18.62,7.938,-3.375,-21.5,4.938,3.344,-13.75,-1.398,0.672,15.25,-6.188,-2.922,0.9453,-13.06,-5.875,-16.38,-16.25,-6.344,17.38,-7.28,-4.53,1.336,16.5,-0.625,6.344,-6.22,22.25,-1.859,3.562,-1.016,-1.344,12.44,-2.234,-2.875,10.125,-7.656,-4.594,-9.125,18.88,1.086,24.25,-10.94,4.844,-5.312
Q9Y2B0,5.625,6.28,8.0,21.5,15.06,-1.484,9.81,-17.62,11.0,9.625,5.312,16.5,1.266,-1.469,-12.19,10.75,-2.281,9.0,12.875,-4.28,6.78,-15.31,15.5,-8.375,8.69,-10.69,0.4453,-0.6133,32.25,10.375,4.03,-7.344,-7.094,-9.06,-28.0,-21.25,-8.625,10.81,-5.75,-6.78,-4.0,12.5,-2.469,5.156,11.94,10.125,-20.38,10.19,9.25,-3.344,-12.94,-10.25,-5.406,-14.56,-10.125,-12.25,-0.914,12.625,-3.734,11.625,24.88,-3.39,3.812,2.766,-28.62,-12.5,-1.6875,9.5,14.125,0.9883,14.19,-5.75,-5.562,-29.38,-8.375,-4.594,-19.0,3.781,-0.8906,20.5,8.81,14.625,4.438,-11.625,2.281,1.484,8.56,-27.38,-0.2734,24.5,-20.0,17.38,6.875,-39.5,-10.125,14.31,9.0,-22.25,50.5,8.44,-23.88,-34.0,-8.06,-6.875,14.875,3.406,7.562,3.047,-19.5,8.5,-18.25,17.38,-20.25,12.69,0.2969,-10.44,-20.25,3.172,-2.688,-16.12,-7.312,6.188,3.516,-17.12,-4.688,3.656,10.125,3.0,3.75,17.88,4.78,-11.0,10.31,28.75,-13.31,7.344,-12.875,3.86,-5.906,3.453,9.81,9.31,-2.75,-11.125,11.375,1.641,0.4883,-12.75,20.75,51.0,-9.06,4.03,4.656,3.375,-5.78,10.875,12.19,34.25,-9.31,-0.4062,-4.22,9.06,-7.22,5.22,5.78,26.0,-0.08203,6.53,-10.44,1.32,-4.0,5.656,-5.406,81.0,-3.156,-15.125,1.109,-11.06,20.75,4.22,-4.625,-7.156,-13.19,-3.0,6.625,8.875,13.81,22.25,2.672,-5.75,-4.25,18.62,-6.72,20.25,-6.156,0.332,0.3555,13.44,0.8633,4.0,-14.19,-2.0,12.31,-8.875,3.203,10.56,-8.06,-15.875,-6.0,24.62,-23.12,11.81,10.75,-2.562,-33.25,-10.0,18.88,-6.03,17.88,10.875,-8.56,28.5,8.69,-6.03,1.453,-11.19,-14.875,-0.4824,-21.12,-8.19,-5.406,8.75,-8.19,-14.81,13.125,-19.5,5.28,4.312,-0.8594,-8.44,2.688,0.2383,9.06,28.0,12.06,9.375,6.28,-4.25,-14.625,-6.656,33.5,-0.953,-14.0,21.12,-1.43,-14.0
A0A140TA62,-7.656,-9.19,13.19,-1.5625,-2.344,-19.0,1.656,-3.0,5.688,8.0,-5.5,3.438,-6.75,7.812,9.44,4.094,-1.469,8.19,4.875,6.72,7.562,-5.438,-1.469,-19.62,4.906,-5.03,5.22,10.0,-6.906,0.10986,1.219,-14.75,-11.19,4.53,6.875,-9.875,4.375,1.422,-0.953,-14.06,6.438,2.672,-3.797,-3.61,-4.28,13.0,-0.03125,0.801,-1.211,1.906,-0.05664,-8.06,-3.75,-1.891,-5.25,-18.38,16.12,7.25,-4.25,3.453,-8.56,-20.0,1.672,-3.594,-14.75,-14.0,-23.0,-2.297,10.25,5.875,15.81,-14.19,17.5,3.047,19.5,-21.88,-18.88,-11.125,-0.9062,2.016,5.375,-2.5,-6.312,14.375,43.25,-7.125,-4.47,-1.086,0.1719,-8.25,-17.0,9.625,16.38,-6.375,-3.953,-10.31,-6.156,-31.62,67.5,1.6875,-0.2285,-49.25,-8.81,12.5,11.56,-5.938,0.586,-0.7383,8.94,3.297,10.94,-14.5,3.906,-22.0,4.28,-5.688,-13.19,7.688,-4.47,-6.312,23.75,16.75,-5.125,-31.75,8.69,10.81,12.375,-5.594,0.2969,2.047,13.875,-3.438,-2.219,7.344,13.25,-9.19,5.656,0.629,-2.125,-0.758,0.7188,16.75,-0.867,0.961,-9.5,11.31,8.81,-10.56,0.6133,4.625,-1.164,-9.875,2.5,-7.594,-6.125,6.656,1.805,10.44,5.344,-0.668,-17.0,-6.094,3.547,24.12,15.5,12.875,-11.75,-15.25,-0.8906,-7.375,-8.0,-8.56,-12.125,165.0,13.375,-15.25,5.47,-2.156,30.62,3.031,6.938,-12.81,7.78,-12.31,-1.656,11.0,8.75,-0.9453,13.625,2.922,7.438,9.75,-8.19,22.75,-9.0,16.62,8.44,11.56,4.5,2.125,-4.53,6.875,6.28,-5.156,-0.6875,5.53,-10.375,-10.25,1.883,6.0,-5.344,2.875,-9.44,8.25,0.1094,-27.0,1.875,9.125,-10.625,-7.78,-3.484,3.703,-8.44,-3.062,-4.25,-0.992,-1.328,-11.06,-20.12,-5.5,-1.203,10.69,-7.688,2.781,10.125,-4.344,-0.6875,-0.3672,8.875,7.812,8.31,4.97,-0.6484,25.75,8.44,-5.53,-5.094,6.812,-8.0,6.5,6.688,-0.3984,-3.469,-4.47,-4.25,4.22
Q9H8H2,-8.81,-7.594,13.94,4.28,4.406,-1.242,6.78,-3.469,7.47,-6.375,-6.312,2.469,-3.062,-14.875,0.508,11.0,1.773,7.594,0.084,6.03,-2.344,-6.75,-12.19,-6.906,15.19,-0.5312,11.25,-0.926,-1.742,-9.625,-0.8203,-17.5,-6.125,11.69,-6.062,-7.562,2.516,7.625,9.5,-6.344,4.03,11.31,-6.812,-10.81,0.586,16.5,-2.25,0.11865,6.406,10.125,2.719,-11.625,-3.922,-6.125,-6.97,-10.625,13.06,2.234,4.406,10.25,7.72,-18.0,-1.453,-0.918,-15.31,-6.28,-9.31,-13.0,0.75,4.125,22.75,-4.844,5.562,0.02832,10.19,-14.81,-23.38,-15.56,-6.875,10.75,19.25,7.688,-8.94,6.875,36.0,1.477,1.453,-4.53,3.234,2.047,-20.38,7.344,14.44,8.44,-0.2578,-2.328,5.812,-20.75,67.0,2.531,-1.781,-31.62,-18.12,9.94,7.312,-2.453,-0.3945,13.06,6.03,3.562,-1.43,-23.62,9.75,-15.06,-15.19,-4.22,-14.375,-1.625,7.5,-10.0,13.75,8.19,-4.844,-40.5,6.062,-13.125,1.633,4.344,-3.484,-9.625,14.19,-3.11,5.375,-0.0879,2.11,-9.75,5.938,6.656,6.188,11.125,-1.617,23.88,-1.227,-6.812,-15.5,10.0,20.25,-8.0,-7.688,2.219,-6.062,-15.31,3.547,-5.125,-2.812,7.562,-4.0,11.44,0.578,-1.891,-12.44,-7.656,-3.812,14.75,13.625,18.38,-13.44,-15.0,1.5,-6.562,2.86,1.148,2.984,174.0,11.56,-6.72,-1.844,-5.562,34.25,-0.4453,-6.312,-11.06,8.625,-14.125,-0.1289,10.81,1.352,6.344,14.375,13.75,8.81,3.64,-9.375,19.0,-18.75,12.94,3.969,-0.2559,-5.125,4.062,-11.875,6.72,10.125,-3.25,5.688,16.38,-4.97,-19.88,0.59,2.797,-8.69,-7.25,-20.62,5.188,-17.0,-20.0,-4.406,2.797,-18.12,-17.75,-0.6094,9.56,-12.19,0.7188,-6.22,-2.781,3.75,-12.625,-6.78,0.785,19.88,11.625,-2.688,5.312,20.12,10.44,8.44,5.812,-2.781,4.78,1.875,10.31,6.5,16.62,8.5,-1.828,-1.5,6.03,-17.0,2.281,19.62,-3.172,-6.156,-8.69,-7.562,3.531
Q9NTJ3,-5.72,0.883,17.25,-4.375,-0.01563,-12.5,2.156,9.06,3.156,9.25,-4.094,1.922,11.69,-4.688,2.36,14.0,-11.56,-2.453,-5.375,1.5625,-7.406,0.9453,6.125,-9.94,-1.719,-7.03,-14.375,12.375,6.656,-8.06,-14.5,-16.62,-2.453,14.25,5.438,-7.0,6.312,3.078,6.656,-22.25,-2.844,20.38,2.688,-3.031,6.875,19.5,2.719,13.0,-2.812,2.906,-1.1875,-19.88,-1.406,-0.8477,0.418,-0.2051,-2.172,-4.0,-21.12,7.812,9.06,-11.81,7.094,-1.0625,-15.75,-11.81,-8.81,-13.31,9.44,5.78,7.5,-4.875,3.25,0.3984,14.31,-16.38,-22.12,-12.06,6.28,7.406,3.375,-5.125,4.656,18.0,44.25,13.375,9.06,-10.5,-6.25,-1.336,-26.25,6.156,3.172,-5.53,-11.25,8.625,15.125,-15.94,77.5,-2.688,-1.094,-32.25,-9.31,12.81,11.0,3.719,-5.812,7.438,-2.625,0.9297,9.69,-16.5,8.06,-14.94,-16.12,2.562,6.594,1.508,0.8516,-14.125,6.656,5.53,-3.547,-28.62,6.344,-6.438,-5.688,9.625,-1.477,6.844,9.94,-0.1377,1.352,13.44,11.5,-4.53,-8.06,12.25,-7.875,-0.3008,13.19,20.5,3.422,14.5,-10.875,19.0,20.75,-4.562,-9.94,5.25,6.062,-18.88,-1.234,-12.44,-6.125,11.625,4.562,10.875,2.656,-1.195,-12.69,-0.926,-0.6406,24.38,14.81,7.656,-5.97,-13.5,5.188,-11.81,3.953,-5.844,12.94,185.0,19.62,-6.844,-14.375,-8.06,21.25,6.406,-6.0,1.898,19.25,-6.22,-2.61,14.375,-0.4492,3.547,5.53,0.5703,7.062,12.375,-0.539,19.62,-8.5,29.88,-5.906,6.125,-9.06,2.469,-8.0,13.875,11.81,-3.031,14.06,8.44,3.562,-29.88,0.582,6.375,1.25,-2.484,2.89,10.94,-20.62,-27.88,-11.375,4.375,-16.25,-17.38,5.312,-1.5,3.578,-10.94,-17.38,-22.0,-5.688,-3.812,-11.69,-9.56,16.12,9.375,-7.125,3.562,24.88,-1.367,-1.875,3.688,2.203,-18.25,-1.086,-2.281,-1.5625,29.75,11.81,-8.125,4.062,-9.81,-5.312,8.31,42.5,8.25,-16.75,-7.0,-13.19,-3.36
O43293,0.496,-12.75,-0.2217,5.78,-10.625,-12.94,4.062,-5.125,13.44,2.812,-3.547,-11.0,8.31,5.938,15.375,14.75,2.86,15.94,-1.18,-17.0,-10.375,0.7266,-3.297,2.438,12.31,0.8555,11.0,13.0,4.094,0.1895,-1.07,-12.125,-9.94,14.375,1.25,-16.5,9.44,6.22,10.0,-17.0,8.19,15.0,-10.0,-1.086,-6.625,8.0,5.844,21.25,-0.2461,11.69,7.03,2.219,14.94,0.4414,-0.2275,10.375,-0.8477,15.31,3.453,6.156,-11.625,-16.62,5.5,-7.688,-5.22,-1.078,-12.125,-8.875,11.19,-8.375,8.875,-3.203,10.94,4.938,-7.656,3.016,-5.25,2.438,-8.19,-0.6875,-5.062,-6.094,-7.03,22.5,41.25,-9.75,16.5,-9.375,-6.75,-14.81,-16.88,10.06,-6.5,-21.12,-5.72,4.938,8.75,-13.75,54.5,8.94,-0.4727,-44.0,-6.844,-0.5,-4.688,-1.344,-0.0625,1.531,-16.5,13.375,5.72,3.031,7.688,-4.28,-7.594,-7.938,-11.375,2.656,-1.641,-0.7188,17.62,-2.703,5.5,-21.75,19.25,7.53,-5.188,0.6836,-8.06,2.86,3.484,1.016,-0.6523,29.12,-3.156,-11.375,4.344,8.375,-11.25,9.06,10.5,8.19,6.406,-4.75,-1.953,14.5,2.14,-13.125,12.5,4.625,2.875,-12.81,5.47,-1.711,-4.625,4.062,2.828,-1.266,8.375,-5.72,-10.81,-4.25,-16.12,4.812,19.62,14.81,-8.94,-13.5,0.617,-20.5,11.375,-4.062,-8.375,154.0,13.19,-0.2129,-4.812,4.156,26.0,2.031,-3.312,3.406,4.0,6.562,-7.03,5.062,9.06,7.28,8.81,-2.125,6.125,1.297,-4.97,2.156,-14.0,13.44,2.797,-1.344,1.289,0.9297,-25.12,13.625,-0.168,-12.56,-6.25,14.94,-2.375,-19.25,0.1602,5.5,-7.188,-3.266,-11.375,4.812,-12.875,-16.75,9.56,2.375,-11.375,-5.28,5.094,7.03,-7.094,-14.75,-7.562,-8.5,6.094,2.938,-21.25,-5.344,21.0,-8.44,-1.625,5.812,2.594,-7.5,1.617,-3.438,18.38,-0.3262,14.31,-1.594,0.3633,32.75,-0.4336,-3.062,7.78,1.3125,-13.19,-14.375,18.75,2.922,8.75,-11.06,-5.5,-4.97
O75530,-6.28,-11.375,10.75,-2.516,6.375,-10.875,-2.531,-1.391,7.47,1.656,-8.25,-7.0,-3.219,4.78,3.625,13.625,5.22,14.56,16.62,3.312,2.031,9.125,-13.19,4.562,9.125,-10.81,2.922,10.625,-9.625,-9.625,5.53,-25.38,-18.5,10.44,-10.81,-16.38,12.81,6.78,10.75,-7.375,0.59,8.75,-13.25,-11.56,-14.06,7.25,0.3574,7.22,2.89,18.0,7.812,-0.6016,17.75,-6.188,-4.47,8.0,10.75,9.56,-15.56,6.875,4.062,-12.375,-1.453,-3.938,-15.81,-12.0,-0.6523,-14.44,19.62,-7.0,13.69,-10.375,-9.06,-10.75,1.3125,-16.25,-3.36,-0.4492,-10.625,3.922,11.625,14.625,-19.12,11.81,46.5,2.797,3.406,2.453,-5.188,2.39,-13.0,16.75,-2.312,-7.062,4.656,-2.672,3.422,-10.81,64.5,18.25,0.1094,-35.5,-9.44,12.5,5.312,0.1211,1.5625,3.125,-20.88,14.94,0.05078,-18.0,3.922,-12.25,6.125,0.1582,-19.5,-4.406,-6.97,-0.1777,26.0,-14.69,-0.2305,-32.25,15.25,-10.0,-5.5,-8.81,2.812,1.133,12.81,-3.375,2.469,10.375,7.875,-15.81,2.281,0.0996,3.64,14.69,4.438,12.375,4.72,-0.4512,-16.75,13.81,3.156,-17.0,-6.375,5.906,2.562,-9.75,16.62,2.75,1.539,13.69,7.812,-4.688,14.06,-4.188,-13.25,-4.875,-14.06,12.31,21.38,11.94,-6.47,-11.94,-11.31,-9.31,18.25,-11.31,2.281,191.0,19.5,12.19,-3.062,2.625,27.25,2.0,4.78,-9.94,0.6016,-11.69,-3.812,3.156,-5.875,-0.2285,15.625,-3.0,4.5,-0.3223,-11.81,15.31,-22.5,13.81,7.72,0.418,5.938,3.906,-15.875,10.375,-1.711,-13.625,5.406,17.5,-15.44,-20.5,-6.72,7.375,-11.875,6.562,-4.28,-3.422,-5.78,-32.75,-4.844,9.25,-27.62,-18.12,2.86,-2.719,-5.375,-2.328,-12.75,-6.75,-16.62,-4.062,-13.19,6.562,11.875,-7.156,4.312,0.0547,12.625,-7.875,4.53,-2.031,-3.5,-0.0625,16.75,4.344,-2.594,30.5,8.875,-2.188,13.56,-0.08594,-3.375,-6.344,18.38,-1.992,-1.719,-2.781,-11.625,4.0
Q15007,-3.031,-5.438,8.44,-1.977,3.516,-12.31,1.156,16.5,11.875,10.5,-7.438,1.172,16.0,-0.6914,4.78,4.812,-8.19,17.12,6.406,-1.32,-5.375,9.25,8.875,-10.81,10.94,-3.781,-7.594,14.75,12.19,4.22,4.438,-20.0,-12.75,4.03,11.56,-4.22,6.03,-0.2266,6.812,-12.625,0.1758,15.56,-1.031,-4.5,-2.11,15.44,0.379,2.25,8.125,-2.203,0.3555,-15.25,4.094,-7.344,-1.625,5.625,2.688,-1.969,-0.4492,-5.25,-9.06,-18.12,14.625,5.406,-26.88,-13.5,-15.69,-2.438,-0.703,10.5,15.875,-15.125,11.69,8.19,7.594,-2.0,-9.69,-10.375,-8.125,3.047,-2.594,-1.617,-15.44,13.94,31.12,-1.094,7.72,-10.06,-7.72,-6.22,-15.75,11.0,4.688,-19.0,1.4375,6.875,-9.44,-12.375,70.5,-2.219,-7.812,-39.5,-21.25,1.875,14.31,-0.412,-21.5,-1.508,-2.969,19.88,9.94,-5.75,11.19,-21.38,-17.75,-3.75,4.0,9.69,-1.0625,-0.672,11.81,11.19,-3.406,-24.0,0.66,-1.781,3.781,17.25,-11.75,-1.281,4.625,20.12,7.906,0.332,24.12,-5.906,13.0,6.375,-12.44,2.953,10.69,5.312,7.5,-6.625,-6.75,19.75,3.11,-2.438,-9.94,18.88,2.094,-9.5,8.69,2.312,5.5,2.594,9.875,9.56,10.06,-15.19,-17.12,-10.0,-3.406,13.375,19.25,26.0,10.69,-32.75,2.766,-8.0,5.156,-14.44,4.062,160.0,19.25,-3.672,-7.03,-11.125,26.62,9.06,6.5,-18.12,5.594,4.594,6.688,12.94,-2.188,1.984,11.31,7.25,8.375,-1.0625,-8.06,13.81,-9.875,19.5,-1.086,0.2305,-5.438,-2.844,1.094,17.25,-2.812,-12.19,-1.656,19.12,-8.25,-36.0,2.64,13.94,-0.1504,1.594,1.953,4.25,-11.81,-3.188,-15.25,3.516,-13.75,-12.31,-10.06,9.75,-5.594,-17.12,-12.375,-18.75,1.453,5.0,-37.0,2.328,13.69,4.188,-3.5,11.19,23.75,8.06,3.688,-3.656,-4.812,4.344,6.78,0.377,-8.06,29.5,0.8984,3.734,2.188,-2.11,-3.781,-12.56,13.44,1.227,-3.484,10.69,-8.625,-5.5
Q9H3P2,-1.125,2.047,6.5,-5.03,-17.25,-8.875,-5.438,-11.81,0.379,6.312,-0.4531,0.04297,16.38,-12.875,9.06,15.0,-10.69,15.375,12.69,-0.412,-10.0,6.938,3.125,-11.44,14.69,0.3555,-0.914,21.38,0.1348,0.6914,-0.9297,-31.12,-18.62,0.6055,-2.36,7.97,5.656,-14.56,10.25,-30.5,-7.562,23.25,3.922,5.03,1.758,13.81,4.062,6.844,8.44,10.5,-1.172,-18.5,-0.6562,-10.625,13.56,5.72,-1.68,4.094,7.5,3.984,-13.69,-23.25,12.56,-6.375,-7.125,-22.0,-4.156,-27.25,-3.656,-16.0,12.81,-14.875,12.06,21.75,-0.0703,-3.094,-7.28,3.797,-6.72,0.11914,10.625,2.094,-4.094,28.12,32.75,-8.75,27.38,-15.69,-10.31,-19.0,-0.4648,4.375,3.281,-28.25,-15.25,12.31,-2.047,-8.25,64.0,6.938,-12.75,-34.0,-27.62,7.188,5.938,-18.0,3.969,3.578,-16.5,22.25,6.906,-10.19,21.5,-15.56,-8.81,-14.75,-12.19,7.625,-16.88,13.5,11.125,-9.44,-2.11,-29.75,0.4336,-8.625,-5.47,3.516,-8.375,-4.22,17.75,27.38,11.75,13.375,6.75,-25.5,-7.156,6.625,-11.875,1.398,9.69,8.06,-6.188,7.0,-16.75,11.81,10.69,7.312,5.812,6.625,13.5,-15.875,2.125,-8.06,2.781,-4.344,-0.2715,7.688,1.148,-7.5,0.1523,-26.62,0.4375,11.0,15.44,19.75,-7.938,-21.75,5.375,-7.656,12.75,3.828,-2.062,121.0,13.06,5.062,-3.86,1.516,43.0,5.78,0.293,-1.406,8.44,9.625,2.672,6.375,0.08496,1.625,10.625,-1.414,14.125,4.344,-4.656,7.562,-13.75,24.25,2.156,-9.75,-5.75,4.344,-16.75,3.703,11.19,-14.81,5.062,16.0,-9.875,-24.38,-2.047,4.562,-0.1758,5.22,-12.0,8.5,-14.94,-17.62,-18.62,9.75,-21.0,-3.594,11.56,20.62,-13.625,-13.19,-1.109,-10.31,6.688,-6.125,-27.0,7.062,22.0,-3.828,11.25,3.625,28.5,20.88,-11.81,3.125,11.44,-0.66,9.06,-3.844,-11.56,24.12,20.75,-10.25,11.69,-3.375,-14.875,-10.375,8.25,-1.781,11.375,0.3281,1.156,-3.906
Q9NRF8,8.19,6.438,4.78,5.03,-1.797,-11.94,5.406,6.844,-8.81,10.44,9.875,9.56,-12.06,-14.44,-9.25,3.984,-6.97,18.38,-3.203,5.594,6.312,5.156,4.844,3.328,3.797,-17.38,10.44,-3.375,-12.69,-10.81,2.312,14.19,-15.75,9.81,-3.797,-6.062,-1.922,-7.844,-0.1602,-0.4805,-18.62,12.125,-8.31,-7.562,-18.75,-21.25,-16.88,-8.375,10.94,-21.0,-2.188,21.38,-5.78,4.72,-12.125,-5.062,23.88,4.75,-12.81,17.38,-4.28,-0.4023,1.859,-6.97,6.25,-4.312,-0.3047,-16.75,5.875,3.719,20.5,-3.156,19.75,-21.62,11.625,-17.38,-20.0,5.22,-6.344,6.688,8.06,2.344,8.06,-3.0,35.0,10.44,18.12,-0.8984,-2.188,-12.31,-22.5,3.281,7.812,-27.62,-6.438,-4.062,1.539,-11.94,31.12,9.06,-11.5,-11.875,11.0,4.97,-19.38,3.453,3.86,0.8633,-5.47,19.12,-13.44,-5.562,1.039,-17.88,-16.75,-19.12,-12.69,7.5,-12.31,19.38,-6.094,-11.44,5.28,-8.75,7.0,6.906,0.05273,-21.12,5.22,7.812,3.219,0.2441,11.06,4.875,24.38,-6.875,-2.938,8.56,6.344,4.688,-12.94,-15.06,7.312,-2.062,-3.531,-20.38,6.875,-16.62,-0.6914,-6.875,1.758,-7.03,-1.898,10.44,-8.06,-11.625,4.47,-0.3516,10.25,17.88,12.81,7.375,7.0,-3.25,10.75,5.75,-17.88,-13.0,-13.44,-0.2188,1.344,6.03,-17.88,187.0,-1.844,-7.75,20.38,12.44,47.0,-10.81,-4.438,-3.156,-18.5,12.5,13.44,-11.375,8.81,3.516,1.992,3.094,0.543,23.75,13.44,-0.633,-23.25,10.125,-4.562,-10.19,6.5,3.64,-0.8516,11.5,8.0,5.562,-6.875,-2.672,-5.72,-17.0,-3.938,8.25,-15.81,8.56,-15.5,-0.4922,24.12,-18.25,-12.31,5.125,3.172,-18.5,-1.75,12.125,5.156,-9.75,-12.69,-5.156,-10.94,0.416,-3.656,7.5,1.805,-8.94,-20.25,1.391,0.05127,-10.94,-9.375,-12.375,-7.53,-3.594,-3.047,-5.125,17.25,27.0,-8.44,-0.5312,1.891,16.25,-1.914,15.81,41.5,11.75,-8.06,-0.2773,-11.06,-5.78
O14735,-6.22,-17.12,2.906,-0.1484,-4.75,-2.125,4.062,-3.5,-5.844,10.44,5.688,-2.531,17.88,-8.56,6.625,9.94,6.594,2.75,5.5,0.9375,-9.75,1.453,6.25,3.828,-5.03,-6.188,-1.336,10.125,26.0,1.266,-8.44,-2.562,-2.047,0.2812,-2.734,-3.672,6.656,3.422,23.88,-2.703,13.81,2.344,4.375,-3.844,-1.953,16.0,2.36,6.438,-6.375,-18.38,2.047,-0.801,2.312,-6.156,-2.469,0.633,-12.75,-0.4043,-15.625,-2.297,-5.844,-9.125,9.31,-6.406,1.141,-1.3125,-4.5,-3.719,4.688,10.19,19.38,-12.75,7.75,3.938,8.31,-8.31,-19.62,-1.086,-8.31,5.906,20.62,-16.88,-4.47,15.875,30.12,7.625,1.68,-9.81,-7.594,-5.97,-11.56,6.0,0.2031,-11.75,-8.5,6.5,6.812,-3.469,45.75,13.81,-6.78,-39.75,-4.844,-12.69,7.25,2.031,-8.06,2.578,-19.38,12.375,2.078,-15.0,3.156,-12.0,1.008,-2.844,-2.969,-11.06,-3.719,-4.5,-11.625,-4.812,4.28,-21.62,10.31,4.094,6.03,6.75,-7.97,-4.062,1.383,-0.1816,5.062,21.5,-16.75,-9.125,3.0,5.938,-7.03,-13.625,7.188,14.0,-2.36,4.906,4.03,11.625,16.88,-6.562,9.31,7.53,-5.094,-16.25,13.0,-11.625,1.328,1.961,10.06,21.25,-8.75,3.812,-16.62,-1.336,6.625,8.81,14.81,14.69,-5.28,-11.44,1.25,-10.19,13.94,-0.746,-3.375,115.5,0.8164,-8.56,-4.406,-11.75,13.5,-2.906,-4.625,-5.0,10.5,3.453,0.4102,14.0,0.371,16.12,20.0,-2.656,9.0,10.125,5.125,9.625,-13.56,13.56,8.31,2.453,2.156,8.25,1.289,9.69,2.469,-8.81,2.531,12.69,6.625,-13.81,9.5,4.688,-15.875,-3.453,-5.25,11.44,-8.125,-3.89,-6.0,1.125,-9.44,19.62,-0.8984,-1.328,0.961,-21.25,-13.375,-10.125,-9.0,6.125,-22.5,-10.06,8.875,6.062,-2.828,4.47,17.5,6.53,-1.75,-0.6953,21.62,7.47,-6.78,-2.469,-0.373,24.25,7.156,2.562,-4.47,0.789,-3.031,-1.492,26.75,8.125,2.172,-3.062,-3.25,2.562
Q9H857,0.8125,-3.797,7.562,-3.594,-5.156,-12.56,2.688,-9.0,2.281,0.992,-5.72,3.61,0.293,6.906,4.22,11.5,-9.25,5.594,10.31,-7.094,1.992,-2.25,0.711,0.9766,-3.781,-3.578,5.188,7.375,-1.594,-8.625,-3.64,-5.344,-9.0,9.25,-9.75,-15.5,-2.062,1.508,-2.016,-8.31,-4.938,5.594,2.031,-7.47,5.688,9.375,-15.625,9.25,10.06,6.75,-3.281,9.94,-5.594,-1.75,-1.039,-1.672,15.25,5.656,-14.94,2.281,2.125,-6.344,12.75,-8.875,3.719,6.656,-1.273,-4.625,11.875,1.086,9.44,0.0586,7.344,-11.31,10.25,-9.94,-9.125,-6.25,-2.281,9.75,10.375,-1.805,-8.81,1.664,34.0,14.0,6.97,-3.75,-5.188,-0.00879,-5.406,-0.004883,11.75,-5.375,-0.508,1.109,12.75,-36.5,46.0,11.69,-7.25,-36.25,-0.8203,3.266,-2.797,4.25,4.97,3.594,-8.81,9.31,-1.523,-19.38,-1.266,-17.12,-5.125,-7.625,-3.406,-1.453,-2.203,7.5,10.19,11.5,-4.875,-16.75,6.094,-7.22,10.25,1.9375,1.125,3.078,24.75,-3.828,6.688,8.625,14.56,-2.344,-4.22,0.1445,4.125,7.875,-0.7812,9.625,-10.31,1.461,-4.562,5.812,9.0,-8.875,-4.344,4.594,3.688,-8.125,0.961,-3.062,-1.4375,3.11,-4.375,0.953,0.01172,5.312,-8.75,5.656,-8.0,11.25,3.812,16.75,-14.56,-17.62,-4.562,-5.656,3.25,4.938,3.719,160.0,5.875,-3.219,3.844,12.56,32.75,-1.625,-12.125,-5.438,-3.5,-3.062,-9.5,5.97,-4.312,3.734,11.875,-8.375,-1.016,10.19,12.94,1.594,-12.69,9.125,5.78,4.688,-0.6914,-0.09375,-10.44,5.438,-0.293,-0.828,-3.594,3.281,-10.25,-5.75,-0.6367,4.594,-5.188,4.75,-8.31,8.56,6.812,-22.0,2.406,11.19,-24.88,-12.875,-7.875,7.78,-1.281,2.469,-12.625,-18.25,5.22,-13.69,-1.141,1.344,6.844,-5.375,1.75,-5.25,10.375,-4.656,0.961,6.75,7.97,4.344,-5.062,-2.281,5.125,18.5,-4.812,-7.28,4.25,3.656,9.875,1.219,19.12,-2.328,-8.44,-2.89,-4.875,-8.125
Q9NX40,-6.25,-1.625,1.383,19.5,12.25,0.3945,7.125,1.961,11.125,17.0,-13.44,9.44,3.594,-5.406,1.031,2.688,7.594,14.25,4.688,-5.25,1.766,9.81,16.12,-11.625,18.88,-7.062,-1.742,16.0,5.094,10.625,9.94,-5.656,-20.25,3.953,-10.69,-6.344,8.19,1.594,-9.25,8.75,0.992,10.69,-1.734,2.203,-3.11,10.81,-11.125,-10.56,9.75,-4.594,7.625,-10.5,16.75,-5.0,-16.38,-2.844,14.44,6.5,-6.594,6.5,-1.828,-8.125,1.141,4.906,-18.0,-12.94,-17.12,-6.938,1.773,-5.062,0.9062,-2.75,-8.125,-2.031,6.312,-17.88,-3.094,-3.719,-20.88,5.844,9.25,18.5,-7.594,2.438,14.375,6.312,7.0,-9.69,2.688,10.56,-12.81,15.25,6.562,-16.12,0.9688,-6.75,-11.5,-25.5,64.5,4.78,-15.56,-35.25,-3.484,16.75,22.75,1.258,-8.375,-0.1299,-7.97,28.5,-9.44,-31.5,-3.906,-12.31,2.812,3.625,-14.56,0.586,5.844,-8.69,10.56,27.75,-5.125,-30.25,5.0,-5.812,-3.984,5.594,1.516,-1.359,-2.719,-6.72,8.5,-4.22,22.25,0.338,-0.0332,-4.22,-0.04883,2.61,-8.625,17.0,8.31,0.4375,7.22,-5.188,-7.188,-3.594,0.746,21.38,15.69,-11.125,10.31,11.0,9.56,-3.234,14.375,19.88,3.156,-19.38,-10.125,14.94,-12.69,14.31,13.0,17.12,-1.734,-15.94,-12.375,4.688,7.938,0.582,-2.562,131.0,18.75,-4.875,3.312,-18.88,8.5,6.844,-4.562,-2.484,-4.906,-0.5117,2.203,8.875,-1.383,13.31,-8.94,7.156,-1.406,7.906,-4.812,15.44,-8.625,4.094,1.914,14.75,-15.125,-10.06,-23.88,18.12,-11.81,5.78,-9.625,18.25,-9.06,-4.062,0.336,31.0,-20.38,-9.125,-5.5,5.062,-9.31,-15.875,-13.875,-8.56,1.8125,5.47,-8.375,5.344,-1.531,7.875,3.547,5.28,-24.5,4.594,-23.25,-0.498,-4.0,6.844,6.28,-6.47,4.22,-8.19,10.31,7.594,-14.44,13.94,9.25,11.19,12.81,38.0,-3.188,7.594,6.562,-4.594,-8.06,2.266,7.78,11.81,-25.75,0.914,8.0,-3.719
P31939,4.812,-5.03,4.312,-4.438,-19.88,-10.625,1.195,-20.0,11.81,1.805,5.75,-3.656,11.625,-3.422,7.844,14.31,-4.906,16.5,3.438,0.1816,-5.594,-2.438,-2.094,-4.375,12.06,3.516,10.75,2.172,10.44,-5.688,-15.44,-14.25,9.0,0.05664,-10.25,-7.188,3.39,3.062,10.44,-16.62,-4.094,11.875,1.133,9.75,7.72,-0.166,6.938,9.625,-4.094,7.625,5.25,-4.906,4.75,-2.781,6.594,-8.81,4.25,9.125,-4.47,4.375,2.219,-12.25,-0.6953,-11.5,-2.047,-14.375,-0.208,-5.594,10.5,-1.523,13.06,-3.062,9.94,-1.375,5.625,-15.56,-10.5,8.5,1.867,4.53,-5.344,-6.03,0.6445,28.0,27.62,4.78,11.06,-25.12,-10.31,-18.25,-10.19,-9.0,-2.11,-20.38,-4.094,3.61,11.25,-10.125,53.5,9.56,-9.875,-30.88,-6.78,-8.56,-9.5,-9.81,6.75,6.438,-15.44,6.875,-3.125,-10.125,9.25,-2.125,-7.438,-12.31,-1.805,-8.875,3.125,3.625,13.69,-10.875,-7.312,-18.5,9.625,-7.844,-8.875,-4.125,-8.5,5.812,10.44,-2.922,0.797,16.75,-17.38,-14.625,-3.172,10.5,2.172,8.31,4.406,6.156,-1.047,-5.906,-3.281,6.312,13.81,-8.44,4.562,3.766,-3.438,-8.375,1.992,-3.25,-9.125,5.656,-2.734,0.7266,-2.453,-6.438,-8.44,-3.844,-5.906,-0.1738,18.12,5.5,-15.375,-13.75,2.688,-25.62,13.44,1.359,1.336,145.0,0.6562,-7.656,-9.5,11.94,31.75,11.19,-5.906,1.344,2.5,5.125,-7.28,13.375,-1.891,15.94,14.875,6.47,13.75,-1.727,3.594,8.625,-8.625,6.906,0.668,2.188,3.75,6.72,-15.31,2.656,16.0,-6.875,2.734,1.953,0.8047,-20.0,2.188,3.531,3.219,4.438,0.06836,1.344,-2.047,-17.0,6.97,10.69,-9.31,-2.828,8.75,6.094,-4.22,-14.06,-6.78,-8.0,-2.547,-0.6094,-7.0,-10.69,24.0,-2.719,-2.422,-4.78,8.25,-8.19,-1.5,3.375,25.0,-0.006348,5.5,3.344,6.594,22.12,7.438,-3.328,4.406,-0.6367,-15.69,-7.375,23.25,4.97,9.81,-7.97,-4.97,-13.56
Q9BTX1,2.844,-17.12,1.672,-3.125,-3.656,-17.75,-5.406,-14.625,5.344,-5.125,7.094,12.69,-13.31,-33.5,8.375,10.75,2.844,18.75,11.125,3.547,12.06,-1.359,-23.0,2.594,13.125,8.125,13.5,7.28,-6.062,-7.656,-7.97,-25.12,-6.188,-0.4512,-5.438,-7.53,11.44,9.44,0.3945,-3.094,10.125,4.312,-10.56,-5.344,-11.125,11.875,3.875,3.36,7.344,5.906,7.812,-9.81,1.719,-14.125,-2.312,-11.06,14.56,-6.688,-12.75,17.75,5.594,-23.25,-20.5,-4.844,-6.812,-12.375,-6.25,-1.82,11.25,3.562,12.375,1.086,-1.672,0.4414,-3.531,-25.62,-15.06,1.633,-8.75,1.914,18.88,7.375,-1.672,6.438,36.25,-5.688,14.875,-12.5,-3.031,-2.984,-3.875,0.6094,4.25,-17.0,-8.25,1.609,-1.469,-29.5,79.5,12.125,-13.81,-41.0,-3.094,5.094,-1.094,0.6836,16.88,9.25,-13.31,7.188,-0.1719,-15.31,7.156,-13.56,5.72,-3.734,-11.125,6.594,1.859,-1.75,27.0,-2.844,5.72,-28.75,2.406,9.125,-16.75,-10.25,5.0,-9.625,17.25,9.125,-4.844,4.47,0.2441,-14.19,2.125,-4.594,-0.4082,10.875,-11.19,0.965,-3.86,0.6484,-15.06,18.12,10.0,-13.94,-7.0,21.62,-8.0,-18.5,6.72,2.453,-4.5,3.484,12.125,16.38,3.25,1.766,-8.56,-0.08105,-3.578,7.062,4.094,17.75,-12.25,-17.0,-2.062,-8.81,16.5,3.312,-10.875,203.0,-16.12,-2.36,1.3125,8.5,32.75,-3.156,2.828,-2.953,-5.094,1.344,-8.81,-1.328,1.141,1.961,15.94,-3.656,13.56,-6.438,-14.19,20.62,-38.0,15.56,4.375,-12.56,1.172,-0.5,-13.0,-5.03,7.188,-8.19,-5.906,12.75,-16.38,-11.25,-10.31,17.88,-5.156,-4.844,-19.12,4.875,-7.125,-21.5,-2.672,6.125,-23.75,-12.5,-0.617,25.0,-0.418,1.117,-2.562,6.312,-11.75,-1.602,-16.5,9.31,21.12,14.375,-6.188,-1.898,9.56,-10.31,4.656,3.531,8.375,-7.938,10.0,4.156,4.53,11.69,4.375,-11.69,4.688,0.84,-14.19,-8.56,17.38,-3.156,-4.188,8.5,-8.875,-8.31
Q8N3C0,-5.562,-13.44,12.06,-5.375,-5.188,-7.312,3.062,-14.56,7.562,1.57,6.844,4.72,-0.5547,-12.44,9.0,10.625,-12.81,12.44,5.28,3.938,4.438,4.75,-0.461,-4.875,11.94,-3.219,8.625,9.31,5.688,-6.688,-8.19,-10.75,-3.844,8.56,-6.188,3.61,-8.625,-2.219,14.625,-22.12,4.562,9.44,3.344,2.953,4.188,7.688,-13.94,6.28,14.625,2.89,-9.125,-2.953,-4.25,-6.438,10.375,-4.97,13.125,4.625,0.01978,7.344,-0.4043,-16.88,4.562,-10.0,-5.03,-8.31,-16.0,-13.06,-0.3086,-8.375,13.44,-9.875,6.47,0.1875,-3.125,-11.69,-22.38,-11.69,-8.125,-4.875,8.44,-4.125,0.9375,18.75,47.25,-4.97,7.78,-7.438,-1.891,-2.734,-13.44,12.875,7.625,-15.06,-4.5,5.47,5.188,-4.03,59.75,-4.78,-0.3984,-26.5,-14.06,2.938,-2.281,-1.336,-2.094,10.81,-9.19,3.531,6.47,-11.69,5.78,-18.12,-11.31,0.7656,-8.0,0.879,-1.094,4.094,8.5,4.875,-4.625,-29.0,7.78,7.594,4.844,4.875,-9.69,-7.5,20.62,11.44,3.703,7.5,4.188,-10.69,5.97,10.375,2.516,2.422,2.656,8.625,6.312,6.375,-8.81,-4.78,7.75,-2.016,1.859,5.812,-3.39,-17.5,0.4219,-8.75,-2.984,-3.547,4.438,10.75,-4.312,-6.094,-11.5,-7.03,-7.656,11.375,18.38,14.81,-14.19,-25.62,-6.25,-13.19,-2.969,13.875,-0.9688,153.0,5.156,-12.25,-6.0,0.2617,25.25,-9.375,-5.688,-1.422,9.5,3.328,1.758,13.125,-1.484,9.0,14.75,-6.47,6.125,4.594,3.297,2.156,-22.12,17.12,1.281,2.031,3.11,7.75,-8.56,7.594,12.0,0.7344,0.1426,9.06,1.82,-11.875,4.125,13.94,-4.594,-5.812,-14.19,11.06,-7.812,-15.125,-1.969,11.69,-13.31,-4.906,-1.367,6.094,-9.875,-11.5,-2.531,0.6406,-2.781,-5.438,0.5977,-9.375,8.125,12.125,-5.625,12.31,4.938,2.625,3.625,3.172,3.516,-4.938,0.1797,-10.06,6.312,22.5,5.03,-14.875,-1.586,15.75,-6.47,-1.5625,6.062,-0.1367,-12.25,-8.94,-5.562,-4.75
P32322,10.875,4.656,3.297,-9.94,-2.797,-2.016,3.375,4.938,13.375,20.38,1.961,10.75,3.312,4.53,-7.125,9.25,11.06,14.19,6.0,9.0,-2.766,3.188,8.625,0.6406,13.875,-4.594,3.531,9.75,10.69,-6.78,7.344,-4.72,-7.312,11.5,-8.625,-16.62,-3.438,2.984,-8.94,3.969,-14.31,5.72,-6.594,-5.78,3.484,-10.0,-7.22,2.375,2.125,0.5938,-10.5,8.31,2.562,13.25,-9.75,2.5,21.88,11.69,3.344,-9.5,3.672,-10.75,0.2832,-2.984,13.19,0.879,-8.19,-22.25,8.69,-2.281,7.094,-5.156,6.47,-24.62,-14.5,4.72,-21.38,0.2227,1.156,11.0,-12.81,3.578,9.31,2.938,42.25,1.211,11.31,-2.938,5.53,-9.625,-9.06,3.766,5.062,-25.88,-16.88,7.688,26.0,3.531,15.375,3.469,-16.38,-33.75,4.406,-1.789,-4.125,3.719,-4.938,-6.125,-1.07,13.25,-7.094,0.832,7.5,8.375,-2.672,-2.188,-14.19,7.906,-2.219,20.0,19.0,1.875,1.0625,-19.75,8.81,6.78,11.125,-4.875,-4.5,14.125,0.03613,-0.8906,2.188,15.06,1.648,-12.25,3.36,-0.953,2.844,16.75,1.492,9.81,8.0,-1.273,5.22,12.5,10.375,-7.47,10.375,-0.4766,4.75,1.516,6.03,3.031,-1.391,0.867,11.56,10.94,7.688,-1.531,-1.516,-5.625,6.97,1.43,10.69,15.875,-9.75,-11.25,-16.5,-19.5,-1.156,7.75,-6.875,163.0,2.062,-8.0,8.75,4.656,28.5,6.438,-10.81,12.0,-11.44,-3.75,-2.812,3.438,1.031,5.625,9.0,3.156,-4.75,14.375,14.44,9.06,-15.44,7.22,3.375,7.312,2.89,4.97,-8.25,14.94,14.25,-17.62,-6.344,0.7188,-2.531,-19.25,3.86,0.828,-9.25,3.219,-15.875,-4.938,21.0,-20.25,1.336,1.758,-2.234,-7.72,2.14,12.94,-3.016,-10.81,-3.578,-12.44,0.5273,-6.688,-11.0,0.926,1.859,-8.94,-8.0,-9.5,-3.594,-8.625,-1.617,-3.61,-2.5,-2.125,5.906,-3.25,10.06,28.0,-1.25,5.53,-8.81,12.5,-19.38,-10.56,29.5,1.75,-15.125,-1.4375,-6.812,0.6406
Q9ULJ8,4.688,32.75,21.5,-0.832,1.453,-15.75,5.688,1.203,-21.75,7.812,-11.25,8.5,4.844,7.625,-11.31,4.75,1.891,31.75,8.19,0.633,3.469,3.14,25.75,-15.125,4.094,-5.75,-12.25,6.062,11.625,-3.484,2.14,-5.906,-31.62,1.141,-2.469,9.5,8.44,-12.5,-2.094,5.97,-18.12,1.148,-0.3008,13.69,3.406,9.44,-1.984,7.03,-4.47,-3.36,-8.75,-0.7734,5.75,-19.5,-11.06,-13.19,4.375,4.906,-1.805,-12.125,-1.172,-3.812,5.812,-3.812,-8.81,-3.344,-6.594,-13.94,-2.312,-5.5,-2.438,-0.1445,16.38,-12.375,-1.344,-3.156,-1.656,-7.562,6.438,9.81,0.0625,-8.31,-0.4824,-13.0,22.62,6.97,16.25,-26.25,1.3125,-5.72,-4.438,-5.938,15.0,-36.25,-12.0,-13.06,9.06,-40.5,53.0,-1.3125,-17.38,-21.0,13.69,0.289,18.88,-1.234,8.56,0.5625,10.875,42.25,14.25,10.375,-11.81,-5.125,13.75,-13.56,3.516,16.5,-3.36,8.31,-8.25,1.414,6.5,-22.0,2.0,-4.156,11.81,5.438,12.81,23.0,10.625,0.03125,4.062,0.0947,19.0,8.94,-6.688,-6.812,-5.688,7.312,3.64,21.12,2.844,7.094,2.031,16.88,1.727,-3.781,-10.375,22.62,14.125,-15.56,9.44,-0.4668,-28.5,9.625,1.219,8.625,17.0,8.0,-14.94,4.875,-11.75,12.375,1.117,19.25,1.219,-16.88,18.12,5.312,9.5,-5.312,-8.25,151.0,-5.438,13.19,-9.125,-2.234,27.75,21.25,6.438,-3.672,-13.94,-6.75,-2.906,-0.6836,4.656,-14.25,12.19,-1.93,4.53,9.19,20.88,16.88,7.656,8.75,-3.5,16.5,3.312,-7.625,-12.5,25.75,-6.22,-12.5,-12.875,-15.31,-8.56,-17.38,-14.875,9.56,4.5,10.06,-7.5,11.875,17.25,-28.75,-9.06,2.547,-2.156,-18.62,-0.1523,20.62,-2.828,-10.125,-3.906,-22.25,-22.12,2.031,2.281,-4.312,-2.938,-27.0,1.703,4.75,6.094,-1.125,-14.19,-14.31,3.047,13.06,-1.156,4.53,10.75,22.5,12.125,2.156,8.75,14.875,12.625,1.047,1.055,3.484,-19.75,5.75,-2.469,-0.992
P08238,-0.2676,6.594,19.0,5.844,1.57,-7.75,10.44,0.2012,9.44,5.125,0.789,5.312,5.28,11.375,-2.812,5.53,3.0,4.656,-10.94,-5.688,-19.12,-8.94,6.03,5.344,9.06,-22.75,-9.625,6.656,15.125,-12.56,3.844,-17.5,-8.875,14.81,7.562,-14.75,-0.754,-1.945,-8.69,6.094,-8.81,21.5,1.1875,-14.44,-6.062,2.016,9.375,-5.78,-4.72,-4.062,7.594,-17.38,-0.9062,-9.44,-6.844,-2.688,9.0,7.312,-16.75,8.375,-3.36,-5.375,12.44,-7.344,-1.0,-9.31,-12.875,-0.4434,8.06,7.438,2.578,-1.023,-2.266,4.47,14.69,-8.0,-16.12,-1.641,-8.375,21.0,9.56,-10.69,2.312,2.094,40.0,21.0,7.0,-1.625,11.5,3.828,-18.12,3.406,10.25,-11.0,0.2383,8.625,18.75,-10.875,54.75,10.06,-5.53,-29.88,-1.633,-3.469,14.125,5.625,-3.86,3.031,-4.22,10.5,-4.406,-15.625,0.11475,-6.406,-6.094,-3.312,-5.562,-5.78,-1.789,-5.28,-1.766,11.5,-3.61,-22.12,16.5,-5.25,-4.75,7.656,-0.5938,5.97,-1.672,-13.06,3.39,-3.344,20.12,-7.438,5.625,5.125,-2.703,14.81,-4.375,31.38,6.75,10.25,-11.19,6.562,14.375,-11.0,-4.562,12.94,13.31,3.703,13.31,-7.03,-2.828,18.88,6.938,8.375,-3.36,8.0,-14.5,-1.164,9.625,17.0,3.531,1.125,-4.72,-2.953,-5.594,-9.44,16.0,-1.414,1.555,158.0,-15.25,-6.25,-17.5,-14.69,30.25,-0.375,4.406,-10.375,18.5,-9.94,-4.72,7.625,-13.0,5.375,11.125,11.69,10.94,10.625,9.125,19.38,-17.0,5.875,6.688,7.5,-5.438,-2.61,-8.44,10.81,1.82,-6.562,6.625,1.3125,-4.78,-31.12,-1.906,12.5,-15.69,-6.344,6.562,8.56,-16.12,-37.25,-2.469,-12.56,0.5625,-11.625,-11.75,-9.69,-8.125,-7.78,-15.69,-8.06,-19.25,1.9375,-18.25,-7.03,18.88,5.0,-12.875,-6.344,6.125,-9.75,4.406,-16.38,6.125,7.25,-4.03,-2.39,13.125,28.38,9.94,1.492,9.625,-15.5,-3.547,-8.81,36.5,1.648,-4.375,7.25,-8.56,5.97
P25786,-7.062,-20.88,13.5,3.453,-1.742,2.812,-8.125,-14.19,15.75,23.88,-4.97,-5.78,-2.688,-5.625,12.75,4.5,-5.594,12.5,20.25,-2.36,-15.44,14.5,24.25,-13.06,-4.22,-9.5,0.06885,12.0,-5.344,4.22,3.922,-7.844,-13.375,8.875,4.875,-13.94,3.219,-7.03,-4.906,-16.25,-0.578,4.75,-4.938,0.1699,10.0,0.1797,-0.5625,2.656,13.5,17.25,4.844,-16.62,17.5,-6.97,1.492,-5.78,9.875,8.81,-4.094,-10.0,-8.94,-28.75,13.94,-16.62,4.844,-5.188,-6.5,-9.625,9.56,-15.31,10.125,-16.62,8.56,11.25,4.062,-21.12,-7.125,2.047,-1.766,-0.828,4.75,-4.53,-5.594,27.5,34.25,0.8945,-1.703,-13.69,-0.125,-13.625,-4.47,13.125,-4.938,-15.375,-13.81,3.578,1.617,12.81,48.75,15.31,-3.5,-28.25,-4.78,-1.758,10.375,4.594,-4.406,-6.344,-20.5,10.56,0.7266,-13.25,4.844,-23.12,1.5,-8.875,-12.31,-4.312,-5.594,4.438,21.25,1.43,0.2109,-37.75,-2.36,0.3574,-6.312,3.156,-2.578,-4.5,9.56,-6.188,-0.02783,11.125,15.625,-13.625,4.562,-0.457,-6.688,-13.375,-5.625,6.5,2.656,11.56,0.2441,-11.31,1.492,6.5,15.19,8.31,0.867,-11.25,5.47,9.81,-4.625,13.06,0.9844,5.75,-4.312,-8.625,-9.31,1.734,-7.375,11.19,16.62,17.5,-12.31,-18.0,-8.5,-13.375,6.156,-2.812,-11.44,105.5,10.5,-8.75,-2.5,-1.32,21.75,-11.125,-9.56,1.625,0.2246,-1.016,-10.875,12.19,3.625,3.61,7.625,-5.0,-1.109,8.375,8.0,-10.19,-4.5,20.25,6.656,0.0742,-4.0,6.125,-14.625,18.25,0.01172,-8.06,-0.11523,-8.5,-8.81,-7.094,10.69,22.25,-4.062,-13.44,-3.781,10.5,-7.78,-38.5,-4.688,8.875,-13.69,7.156,5.688,4.47,9.19,-17.75,-5.03,-5.438,-3.062,-12.0,-19.0,-16.38,5.75,4.656,7.22,6.062,14.31,8.75,1.984,-4.875,5.188,5.375,4.125,1.484,-2.89,35.75,7.125,-9.375,-7.438,10.69,-3.906,13.69,0.498,17.38,-3.469,-18.75,-6.406,-10.06
P26358,-0.4785,6.0,20.75,-4.906,2.188,-10.56,6.594,8.625,1.484,-3.219,-1.969,4.625,4.938,-11.94,0.3965,12.875,-2.812,-0.9297,-6.75,3.422,-2.312,6.22,1.469,-3.062,6.375,-7.47,-0.922,10.31,1.375,-7.344,-14.19,-10.94,-5.28,7.188,-5.656,-1.391,5.78,0.07275,10.69,-15.125,0.03516,20.5,-0.7266,-8.81,-2.61,10.25,2.156,2.734,6.53,1.516,3.281,-16.62,-3.219,-8.625,-6.03,-5.906,8.69,-11.125,-15.69,15.25,3.594,-2.453,-0.5586,0.875,-17.0,-13.375,-11.375,-13.375,5.062,8.5,9.75,0.1211,2.094,-3.188,10.5,-8.625,-15.0,-14.19,5.03,1.969,12.94,5.75,6.75,13.44,43.0,9.0,5.5,-7.188,-3.61,6.344,-23.5,4.5,6.562,-9.56,-3.078,6.28,8.5,-25.25,78.0,-3.453,3.672,-28.88,-9.44,12.31,11.0,-2.375,-5.688,9.125,-1.742,11.0,4.094,-14.75,1.57,-8.19,-6.562,0.8047,-7.28,0.0918,4.28,-7.375,8.375,8.0,2.562,-35.0,-1.398,-12.31,-4.406,6.938,2.969,-1.594,8.81,-1.602,5.938,15.19,9.625,-1.43,0.3633,7.375,-0.949,8.56,5.188,21.12,2.406,7.78,-3.906,13.0,12.19,-7.906,-13.69,-0.883,11.06,-15.69,-0.3555,-6.375,1.227,9.31,4.906,7.812,3.266,-0.586,-7.438,-1.484,2.812,21.38,16.38,5.594,-5.188,-12.5,6.25,-6.875,8.375,-0.711,12.5,180.0,13.69,-9.44,-12.625,-3.312,20.25,5.938,-8.875,2.594,10.81,1.367,-0.3418,1.852,-7.094,5.906,3.36,2.578,9.06,9.125,-4.844,17.88,-12.875,12.44,-4.22,7.375,-2.047,-0.9453,-14.81,12.25,7.406,-4.5,9.19,14.875,7.53,-16.75,3.812,6.625,-1.094,-2.61,-7.47,6.312,-17.38,-20.38,-15.69,2.875,-18.38,-19.5,1.867,1.953,-0.06396,-2.266,-17.38,-5.875,-2.078,-7.062,-7.062,-1.852,21.25,3.922,-3.297,1.055,19.5,-0.879,5.156,7.75,-3.734,-7.22,3.234,-3.797,3.938,25.0,9.19,-6.562,11.125,-2.172,-11.25,-4.47,36.25,5.094,-14.31,-1.852,-5.438,-5.75
Q9BY43,4.156,-5.594,9.44,12.94,-12.44,-15.0,-1.578,-6.438,10.5,7.156,-2.969,-3.078,16.12,-0.0381,13.5,14.19,-16.88,13.94,9.81,-20.12,-14.875,-8.31,18.0,-11.56,20.12,-6.75,5.344,0.9688,10.875,-7.938,-18.25,-9.19,-2.375,-4.562,-12.31,-19.5,10.625,-7.094,8.31,-45.75,-3.094,10.125,11.94,20.38,18.62,13.19,9.94,19.88,8.875,23.5,-7.406,-9.25,-4.594,-15.56,7.688,3.453,-13.0,19.62,3.797,10.125,-12.31,-17.25,24.38,-0.02344,-16.0,-21.12,-7.594,-32.5,-0.953,-4.375,13.06,-13.19,22.38,9.81,9.56,12.625,-8.125,8.125,-5.812,11.19,-15.81,0.012695,-14.875,29.0,32.5,-8.56,17.88,-16.5,-12.5,-24.88,-24.12,6.97,-6.938,-20.25,-0.01563,7.125,21.0,-1.6875,43.75,17.12,6.938,-51.75,-32.5,-10.375,8.0,-9.75,16.25,2.266,-28.5,15.25,13.75,8.75,24.38,-9.75,-5.0,-14.56,3.25,-1.734,-1.914,2.39,8.31,-9.875,2.25,-23.12,13.69,-16.5,1.977,13.06,-19.25,16.5,15.44,2.531,19.38,30.25,-0.5156,-41.5,-11.0,21.62,-6.188,3.156,23.12,1.953,1.484,13.875,4.97,4.25,19.88,-8.875,20.0,20.62,-6.844,-18.5,2.562,-6.312,1.25,-7.188,2.89,4.125,5.188,-0.3398,-11.94,-15.06,-6.125,-2.89,24.5,-6.72,-9.25,-12.75,2.453,-15.06,-3.5,-9.125,8.125,98.0,-2.844,1.07,-5.28,-2.875,32.5,15.375,-4.47,0.7266,11.69,6.75,-9.56,8.875,8.25,5.906,-14.56,7.906,6.0,18.5,-8.31,-4.22,-1.719,12.0,-1.594,5.97,-8.0,10.5,-20.5,14.125,6.688,-5.938,12.125,13.06,1.969,-40.0,8.44,7.5,15.69,9.44,-9.875,-0.2773,-16.5,-31.88,6.156,-15.625,1.016,-4.53,8.69,2.203,-9.06,-14.0,-9.5,-24.12,7.844,8.25,-2.188,0.0,15.94,-2.219,21.62,4.438,12.875,7.375,-4.188,1.1875,15.31,-21.5,12.0,2.078,-10.125,23.0,5.406,5.0,-5.812,-5.812,-7.875,-13.625,13.81,2.344,3.547,-7.625,-5.156,-7.062
Q86W92,-1.25,0.1172,8.19,-2.031,-2.016,-7.5,8.5,-4.875,-0.1436,7.188,-2.188,-0.4727,4.406,-9.5,1.875,11.75,-5.688,15.19,9.69,-3.016,1.844,1.125,14.81,-11.31,4.156,-12.56,5.5,15.625,4.438,-2.828,-3.0,-14.375,-14.75,-2.328,0.4414,-0.001953,6.406,-11.0,10.94,-18.25,2.953,15.44,9.125,-7.125,-2.031,13.31,3.469,8.875,9.25,7.75,-0.7617,-14.125,-0.9414,-7.25,-1.625,-6.28,4.406,14.31,10.31,2.172,-7.062,-17.0,6.22,-11.375,-10.375,-10.44,-15.06,-3.656,0.1748,-2.703,17.62,-13.06,19.0,12.94,4.062,-8.875,-6.438,-1.016,1.578,6.156,8.375,-2.422,-6.562,18.25,41.5,0.003906,14.75,-15.75,-3.094,-14.375,-16.38,6.22,7.875,-19.0,-12.06,5.656,3.797,-16.5,58.0,0.125,-11.94,-39.25,-27.5,3.734,-3.438,-3.156,-0.8633,-7.156,2.016,10.875,11.25,-8.25,8.94,-12.94,-2.531,-14.94,-4.47,4.5,-6.594,4.875,7.406,-0.3574,6.5,-31.88,6.656,-4.375,3.5,2.484,-6.156,-6.188,9.06,19.0,10.25,1.969,9.5,-16.5,12.06,1.867,-13.06,2.438,6.125,7.03,-2.625,3.922,-8.56,4.406,3.625,3.062,8.94,9.31,6.312,-12.75,2.031,0.0381,6.906,1.781,-3.188,17.12,-2.969,2.969,-0.793,-16.38,1.422,11.06,21.5,28.5,-7.125,-25.38,-1.445,-14.44,3.75,-2.625,-6.938,126.0,9.375,-4.625,-7.344,2.672,29.0,4.25,-11.875,-8.625,2.328,9.31,0.8047,5.938,-1.539,1.609,12.5,2.406,0.715,1.555,7.906,-1.219,-13.06,11.06,-0.3555,1.68,-2.375,2.047,-2.453,13.81,11.5,-5.78,-2.797,1.578,-10.0,-14.75,0.3496,4.938,0.4863,-1.484,-16.38,6.844,-4.875,-17.25,-19.88,5.688,-15.375,-6.938,-6.844,15.81,-12.625,-16.5,-19.88,-14.56,-1.1875,-4.5,-24.88,4.094,12.125,-8.81,3.281,7.344,10.56,14.69,-1.375,6.188,1.859,4.562,-2.438,3.0,0.7656,31.62,12.375,-5.312,3.312,5.125,-7.03,0.03174,8.25,3.031,-3.844,8.375,3.938,-4.906
P55884,-4.28,-19.0,5.5,-13.375,-7.53,-11.25,5.094,-9.31,-6.0,7.22,5.72,-2.375,-4.844,-2.812,8.44,15.69,-6.188,2.688,10.75,-3.562,6.97,7.375,6.062,-8.5,0.04688,-14.5,0.5625,11.25,5.938,-2.812,-13.375,-12.0,-20.0,15.56,0.5938,-8.0,6.938,-6.375,6.188,-10.125,-12.19,5.812,-3.594,-4.875,0.91,9.0,-12.19,6.72,4.75,13.125,-1.625,4.344,5.562,-2.39,-0.9297,-1.492,11.19,6.594,-9.875,-3.281,6.22,-14.06,16.0,-11.5,-8.625,-4.844,-4.03,-13.375,5.25,3.75,16.12,-12.56,7.03,-0.295,7.438,-8.125,-4.53,-1.703,-1.172,5.22,7.656,-2.203,-13.81,13.94,35.5,6.47,2.11,2.781,-4.844,-11.25,-9.06,11.75,10.375,0.02429,-0.9453,-8.125,5.22,-28.0,60.75,15.56,-2.64,-32.0,-11.94,-3.031,-2.625,10.125,5.188,1.922,-16.0,0.3828,6.375,-4.688,-3.86,-13.75,0.6484,-21.0,-8.25,-2.203,-14.625,2.547,14.0,-1.984,-4.094,-31.12,0.2773,-9.31,7.406,6.625,3.64,-12.06,20.88,7.875,4.25,1.727,12.25,-17.0,-1.992,1.883,4.28,-1.586,3.734,7.625,-4.406,-3.062,-5.406,-3.75,10.5,-15.19,-1.219,-0.9883,-3.281,-14.31,15.125,-7.062,-0.824,5.0,5.938,-2.875,-0.3633,4.406,-13.5,3.203,-5.094,16.25,12.94,21.38,-14.0,-15.94,-3.062,-9.56,7.812,-4.062,1.781,156.0,3.422,-6.78,1.578,7.688,33.75,4.906,-1.016,-5.688,2.39,6.47,-1.227,3.812,4.594,-9.875,11.625,1.773,2.312,10.375,10.375,4.0,-10.31,12.5,6.688,1.594,-1.125,-6.75,-4.78,14.56,11.69,1.664,2.469,2.547,-15.0,-16.62,-1.492,5.812,-2.031,8.375,-8.5,5.875,0.582,-17.62,-4.375,3.25,-21.62,-4.156,-4.375,4.25,-2.938,-13.875,-11.625,-23.75,-1.875,-7.438,-11.25,1.969,7.625,-6.47,8.0,10.94,12.56,10.0,-5.125,-5.75,-0.3457,4.656,-3.0,-10.375,1.383,26.62,5.625,-2.719,9.44,4.28,6.688,6.438,17.5,2.484,2.172,2.0,-17.5,0.8906
Q9P2E5,7.656,-5.375,11.25,-1.6875,8.5,-13.19,-2.156,-2.75,9.375,12.875,-5.375,5.688,4.97,-12.94,2.36,16.5,-12.25,12.81,15.375,4.562,9.0,3.375,-0.66,-3.0,9.875,-3.219,8.06,12.5,16.38,4.312,1.4375,-8.875,-18.25,13.56,-17.12,-17.5,6.906,4.688,-0.7734,-16.75,0.3633,16.25,-10.0,-3.938,-0.2031,17.5,-13.56,15.875,10.875,-0.883,-6.78,-5.188,-4.53,-17.38,-14.06,-11.25,-3.047,12.75,-10.94,17.88,20.25,-10.5,4.25,-8.25,-9.25,-6.312,-9.125,-4.5,17.62,11.81,20.0,5.28,8.19,-18.25,-0.4727,-14.19,-28.12,-7.875,3.219,7.062,-0.5234,6.562,3.984,4.062,30.0,14.0,1.906,-24.0,-7.875,7.594,-20.62,6.906,-0.828,-28.38,-9.06,5.875,4.656,-13.5,79.5,8.5,-5.438,-41.25,2.578,8.125,9.0,7.094,3.0,4.28,-20.25,7.344,-10.94,0.836,-4.625,-14.69,-2.156,-2.328,-9.56,12.56,4.53,-15.125,11.56,8.56,5.47,-15.0,-1.133,-0.3203,-7.938,4.25,15.125,20.75,16.38,-1.6875,0.4727,9.625,4.97,-0.332,-1.789,-0.5,3.797,0.2734,-2.922,21.12,0.758,7.438,-1.883,8.625,8.81,-16.12,-6.938,22.5,-5.47,-20.62,0.742,4.656,-8.625,1.266,10.0,18.5,-5.5,-10.375,-13.125,13.06,2.688,22.0,9.625,33.25,-14.31,-9.94,3.516,4.28,-0.961,13.125,-1.6875,137.0,9.19,-13.94,8.25,8.44,27.5,-1.984,-12.0,-4.406,-6.656,-1.281,-7.312,16.38,10.44,6.03,0.8945,-2.0,-1.3125,9.06,-7.812,18.62,-6.156,20.12,11.19,12.94,-1.352,-9.56,-4.188,2.719,9.375,-7.28,10.625,14.75,0.8086,-13.125,-9.56,16.75,-1.453,-2.094,-7.78,-5.656,-14.125,-9.44,2.984,10.31,-12.94,-2.719,-4.312,24.38,12.44,-5.094,-5.625,-5.03,-5.656,6.625,-22.0,-15.0,20.5,14.375,-4.625,-7.875,15.0,-9.75,9.125,16.88,-2.469,-5.906,-0.1641,-16.75,15.06,15.94,12.94,-2.14,7.656,6.312,-19.0,-1.8125,29.62,-3.0,-20.12,4.906,-14.375,-11.875
P31271,-1.648,7.438,6.812,9.0,18.5,-12.69,2.188,14.375,13.375,5.812,-11.5,12.06,11.875,-11.5,-0.336,12.625,7.344,9.375,11.875,13.375,-9.31,8.81,0.5273,-10.31,12.06,-8.19,-1.148,13.31,8.0,4.438,6.625,-22.75,-19.0,-2.812,1.547,-12.875,8.31,8.19,1.68,-8.125,7.188,4.125,-11.875,-12.0,-7.25,4.812,9.81,5.438,-0.6523,12.94,0.2266,-11.0,12.125,-17.0,-5.594,-10.31,11.31,10.5,-2.11,10.0,8.0,-11.81,-4.28,-3.406,-14.5,-3.656,-16.75,-2.094,13.19,7.688,12.31,3.375,-0.0908,-1.852,6.312,-6.594,1.25,-8.625,-8.625,10.5,-4.5,19.12,-8.375,13.5,20.62,-1.578,5.875,-8.0,-3.562,14.375,-10.25,19.5,-1.898,-31.75,-11.625,12.25,-2.281,-18.0,69.5,0.1289,-9.375,-30.88,-25.38,11.75,1.898,0.09375,-7.906,1.375,-18.12,28.12,-5.906,-2.062,8.06,2.844,-5.75,6.875,-19.38,14.75,-3.39,-3.031,20.62,15.44,7.312,-16.75,-1.531,-13.625,-4.0,2.875,6.28,0.8203,8.375,18.75,-3.61,-3.312,12.875,-17.5,9.625,-4.062,-8.5,1.195,11.94,16.5,5.25,-7.03,-11.125,1.133,-8.375,-8.81,-9.44,23.75,7.875,-7.625,9.69,-5.406,14.25,5.406,6.812,14.31,3.328,-22.0,-8.94,6.72,-4.688,5.812,17.88,36.75,-5.625,-10.94,-12.19,5.062,-5.0,-12.375,-5.22,147.0,20.62,-1.102,2.266,-9.375,28.88,1.445,-3.594,-3.656,-2.656,9.5,-9.125,9.5,2.578,4.062,7.97,1.195,3.844,2.625,-13.94,30.62,-4.0,22.88,-4.375,9.56,-7.25,11.125,-7.812,9.94,12.375,-22.75,3.453,23.38,-8.5,-33.0,-12.625,11.5,-3.812,-3.719,-22.12,-4.344,-30.0,-11.06,-5.312,-8.94,-21.75,2.938,-12.25,18.75,-0.1406,-1.828,-7.25,-14.375,-9.5,-4.656,-29.25,2.469,12.19,13.5,8.56,-3.406,19.62,2.625,16.38,5.812,7.656,8.06,19.12,-9.06,0.2852,19.25,12.19,3.953,7.188,-7.22,-24.75,-1.203,8.94,1.891,-0.8477,3.062,2.344,-12.625
Q5RKV6,-4.22,-6.562,-6.094,-11.75,1.789,-11.31,19.88,2.953,-0.758,19.75,-1.641,-1.25,13.44,-23.25,8.06,7.625,-12.75,8.19,-10.125,-8.06,-11.0,12.0,13.06,-9.94,2.11,-9.75,-4.344,12.375,21.12,4.875,-9.56,-8.875,5.344,3.234,5.406,-17.25,3.172,-0.5977,-13.125,-23.25,-4.594,15.56,2.844,0.293,10.69,17.12,11.56,16.5,3.312,7.97,3.86,-6.625,14.31,-8.56,0.6484,-4.938,-0.5625,-5.97,-4.938,2.594,-9.56,-17.38,11.56,18.25,-22.38,-14.19,-14.19,-21.88,6.562,14.31,5.25,-0.254,12.94,10.25,-0.03906,-12.875,-23.62,-16.38,3.0,-0.574,10.75,-15.0,-2.984,17.0,37.0,8.625,17.88,-15.625,5.5,-7.47,-25.12,3.656,1.453,-13.75,-13.75,1.8125,13.125,7.75,59.25,7.312,0.1484,-26.88,-4.97,0.7344,22.5,-2.5,-6.97,7.47,-4.438,20.62,-4.72,-5.125,3.062,-8.31,-14.0,0.9062,8.56,-2.844,10.625,-13.56,0.125,8.75,4.312,-30.38,0.1719,1.352,-3.047,19.62,-15.125,0.2578,0.4766,-4.594,15.44,13.75,-10.875,2.25,-0.801,14.94,-5.406,-6.0,4.906,10.875,-7.28,12.75,-4.312,14.0,22.88,-7.594,0.1426,9.625,8.19,-12.375,-8.31,-10.94,-2.016,-1.125,9.56,33.0,1.633,2.25,-20.62,-14.75,-3.438,6.28,20.38,7.28,-4.125,-12.875,-2.516,-8.94,8.5,-1.891,-0.254,121.0,9.06,-12.375,-10.56,-11.44,36.75,16.75,-8.31,-8.06,17.88,0.1836,-3.094,1.9375,-11.75,13.19,1.109,10.19,1.977,15.69,2.062,16.62,-2.36,20.12,5.0,2.516,-12.44,-2.844,-5.062,-1.805,-1.109,-10.375,6.0,23.62,0.8945,-35.25,1.836,24.62,-7.688,8.25,2.672,20.5,-11.19,-31.88,-9.56,-2.844,9.69,-16.12,9.125,-4.812,-5.594,-13.06,-18.12,-13.5,-2.984,3.203,-18.5,-12.5,30.75,-5.375,-5.844,-11.81,17.0,-1.422,8.44,-1.609,-15.125,6.406,4.094,-6.812,6.062,28.5,12.375,10.0,8.56,0.9766,-14.25,-13.625,33.25,6.0,-12.0,-9.31,-13.25,0.6953
Q5HYI7,10.31,-9.75,-0.6445,-1.18,-3.453,-15.44,-0.5195,-16.75,0.7266,-0.371,11.56,9.44,10.31,-12.625,8.125,9.875,-4.625,24.5,3.5,-1.531,-12.0,-0.926,-6.125,-5.03,14.75,-2.016,6.97,4.094,1.109,-6.312,-4.375,-22.12,4.312,6.188,-1.625,-2.5,-8.69,3.25,-8.81,-15.875,-0.633,15.0,-3.031,4.28,15.5,4.25,0.707,11.06,-2.61,0.883,7.438,-3.953,5.562,-9.375,12.31,-6.438,-3.64,2.219,9.19,11.0,-10.375,-22.88,-1.984,-3.156,-10.25,-15.0,-3.984,-19.62,-3.562,-3.938,10.25,-3.266,10.44,-1.406,-2.344,-9.31,-27.62,8.875,-3.656,0.2109,3.828,2.281,3.125,21.5,30.0,-10.25,19.88,-30.62,5.03,-11.56,-7.656,3.328,3.875,-33.75,-1.3125,-3.094,-3.375,13.125,63.5,-0.3438,-2.64,-35.75,-8.75,-3.953,5.906,-15.69,6.656,10.94,-16.75,35.0,-2.594,-8.81,11.06,-0.672,-4.97,-4.0,-7.125,0.4648,1.336,6.844,16.62,-9.125,-6.938,-13.31,7.03,3.156,-22.25,2.234,-8.19,4.53,5.375,11.5,6.22,15.375,-4.47,-16.25,-5.25,6.062,0.9062,1.734,5.562,4.375,1.922,2.375,1.969,-4.688,18.12,-1.609,-4.97,9.125,14.31,-4.22,-5.97,-6.28,-17.12,-0.2412,2.875,7.656,-4.188,-8.625,-2.328,-19.12,-8.56,0.703,7.688,2.375,-9.375,-21.62,-9.125,-8.31,5.688,8.94,-7.875,120.5,2.844,2.64,-1.484,0.4375,34.75,6.844,-1.328,-2.031,8.56,-1.109,-0.6797,9.5,-2.75,13.06,6.188,13.56,11.125,0.8555,-1.008,13.19,-4.375,9.375,4.188,8.625,2.984,6.594,-13.5,-2.094,8.31,-7.72,6.875,3.703,-2.219,-24.5,3.562,20.0,-0.754,0.2832,0.879,-2.0,-0.0537,-12.44,3.234,10.625,-6.656,-3.844,9.0,10.06,-8.94,-11.19,-2.078,2.89,-0.9453,-8.94,-13.94,-4.562,25.25,16.88,9.81,-6.344,8.875,0.2373,-3.047,0.0547,2.11,-0.4043,6.844,7.375,3.719,19.38,16.38,2.438,12.69,4.78,-18.25,-13.69,20.0,2.438,5.375,2.719,-5.53,0.914
P61956,-3.828,-15.375,17.12,7.312,-8.69,-11.19,-1.211,-16.12,7.72,-9.5,1.539,5.25,32.25,3.594,19.75,7.312,14.0,19.0,17.5,36.5,-29.25,4.53,-11.25,-12.44,32.25,8.31,8.0,10.875,3.531,-6.5,-4.688,-45.5,-17.62,-9.375,-0.6055,-9.625,13.69,0.836,21.0,-9.375,-3.969,13.94,-23.12,-0.003906,-18.12,28.5,4.688,15.5,-3.578,5.312,6.97,14.25,20.5,-10.5,4.344,0.6406,7.25,11.75,-9.625,14.94,-31.62,-30.12,-1.125,11.06,-6.906,-22.5,-9.56,6.938,2.047,-12.19,22.5,-5.312,3.266,13.94,31.62,-18.88,-26.75,17.0,-17.12,-5.375,18.75,-5.78,-11.5,43.0,9.56,23.0,10.375,-12.06,-2.156,-0.293,-0.965,-3.062,-2.297,-7.625,10.625,-8.875,4.875,21.62,38.75,18.38,0.8906,-11.56,-46.0,1.086,1.102,-15.81,-9.125,-9.625,-20.75,9.81,-1.75,-27.25,20.0,-7.875,-11.625,9.44,-17.12,-0.7188,-1.445,7.656,8.625,-13.69,-29.75,-30.12,12.25,-19.62,-24.38,-9.19,-24.75,-11.25,-5.344,-4.28,5.688,1.961,-14.69,-21.25,10.19,21.5,9.5,-18.75,-3.5,10.0,-2.047,6.656,-9.0,3.281,-9.69,17.12,-7.688,10.0,11.44,-15.06,22.5,12.25,-9.625,14.94,0.5586,-26.0,20.62,-20.38,-8.5,9.25,-22.0,10.625,21.38,8.06,0.965,-23.12,-5.97,-9.94,15.125,5.594,-7.625,121.0,2.312,3.734,-22.88,-3.766,22.75,0.84,13.875,-3.938,0.1172,13.75,0.1992,7.688,-20.0,38.0,-3.531,6.312,19.62,15.44,-14.44,30.25,-34.25,18.12,-17.88,-2.86,6.0,6.375,-27.25,8.875,-1.844,-9.44,15.44,15.0,-10.44,-23.75,-5.812,23.0,2.219,7.094,-0.7344,22.88,-23.0,-25.75,-7.438,-2.094,-23.75,14.625,-1.742,-20.38,1.664,-13.125,-13.875,-1.352,-1.0,12.625,-20.88,11.125,5.344,14.0,8.875,-13.06,17.0,13.375,-2.688,-6.97,3.438,9.81,27.0,1.094,-8.75,37.5,11.31,-3.672,-5.344,10.19,-5.22,3.938,41.75,10.125,42.75,2.844,-9.94,-8.44
P62995,-23.88,-5.875,11.75,15.375,26.25,-17.0,-0.3828,1.609,-4.156,18.38,-18.0,-3.469,27.5,-1.109,-5.906,8.44,3.375,19.75,13.625,6.47,-16.88,10.125,-4.906,-12.125,29.62,11.31,0.3555,19.75,-1.047,-3.672,19.62,-30.88,-22.75,27.38,-4.344,-8.31,1.922,15.5,8.06,-30.75,-11.19,25.75,-17.25,-10.0,0.797,24.88,5.156,8.19,3.89,14.81,14.375,-17.25,25.62,-23.38,-9.625,9.375,12.81,1.289,-6.625,-11.0,-3.812,-7.125,3.188,9.875,-37.75,-11.75,3.672,-35.0,-9.0,-0.5977,7.844,-18.62,-11.69,9.375,8.75,-9.06,-5.375,0.4492,-8.06,-8.75,6.562,17.25,-16.38,19.75,14.875,-5.844,19.5,-3.781,8.56,-3.297,-27.38,35.25,-1.336,-11.69,1.203,5.625,-0.961,0.2461,63.25,-10.31,-8.56,-36.75,-21.0,1.641,36.5,8.0,-7.53,5.625,-5.438,25.88,4.28,-32.5,13.75,-5.125,-10.69,-14.19,-16.88,25.25,-29.62,-7.656,19.38,8.375,5.75,-37.75,6.78,-8.5,-3.562,24.12,-26.12,-3.25,-0.957,-0.8477,0.2637,20.0,21.12,-18.38,0.0884,2.234,0.832,3.969,18.62,24.88,8.0,-5.22,-10.31,19.75,-20.38,-1.453,-9.25,15.75,31.38,-6.0,14.25,0.539,-4.0,14.0,-10.31,-3.203,22.75,-13.125,-16.5,-27.25,-5.094,14.94,20.88,26.62,2.375,-9.625,-19.75,-10.31,9.0,-25.62,21.62,138.0,39.75,25.62,-15.375,-10.31,18.0,17.88,0.0664,-12.19,22.12,-7.156,-2.469,19.5,3.594,26.38,-5.312,-3.797,-3.062,11.875,-16.62,26.25,-2.969,7.875,-6.938,-2.016,-12.75,14.81,-23.25,17.38,-8.875,-1.539,7.47,24.75,-13.56,-46.25,14.31,20.25,1.656,4.97,-17.75,-21.75,-17.0,-18.25,-4.156,1.977,-30.5,-6.406,4.844,-3.656,8.625,-16.5,-14.81,-6.938,-10.25,-2.5,-29.0,-4.72,8.125,-4.625,15.75,-12.125,33.5,-1.414,1.273,4.688,-17.5,-5.875,30.38,17.75,-7.938,42.75,15.75,17.75,2.156,28.75,-18.12,-19.75,26.75,4.47,1.461,13.31,-2.75,-2.125
Q969E2,-5.25,-19.62,-4.938,0.535,-6.344,-17.5,-11.5,-11.31,4.5,13.625,4.25,-2.094,1.57,9.875,6.906,9.94,4.406,12.25,18.75,1.539,-11.94,7.656,-2.812,2.39,0.2305,5.844,4.22,14.81,9.0,-6.875,-5.094,-22.12,-25.62,13.75,-8.625,-8.25,0.5547,6.28,15.69,-3.297,9.625,7.062,-1.766,-4.688,-7.156,3.484,1.039,13.56,11.56,-5.812,-5.0,0.4492,11.06,4.344,1.5625,11.19,15.06,-2.125,-4.938,2.844,0.6484,-13.19,5.844,3.922,4.28,-9.75,5.375,4.72,11.5,-7.562,14.69,-11.31,-1.625,2.266,-7.656,-4.125,-16.0,-8.375,-17.25,-0.8984,21.25,1.016,-8.5,9.94,41.5,0.496,10.25,-8.31,6.312,-6.656,-1.0625,4.656,-1.516,-0.2637,-5.188,6.78,6.875,-8.625,45.0,17.38,-16.5,-31.12,-10.69,-14.625,10.06,-1.445,-6.812,-4.906,-13.25,27.88,7.188,-18.25,-8.75,-8.0,-3.219,-19.38,-9.625,-12.31,-6.25,7.875,13.56,-8.06,9.69,-19.38,9.69,5.0,6.78,-0.7617,-11.06,10.75,1.406,0.0547,5.625,21.88,-5.875,-9.44,4.438,-3.703,-2.469,-5.875,0.3281,0.2812,12.19,-5.594,-3.969,12.19,-6.875,-0.05078,10.25,24.38,1.109,-9.56,12.56,-4.594,-4.094,7.594,8.31,-0.09375,4.406,-7.625,-9.375,-2.672,-8.81,5.906,9.75,9.75,-9.44,-15.56,-9.44,-0.2158,13.94,-5.062,0.168,121.0,3.688,0.84,11.5,-2.922,23.38,-14.375,5.625,-5.53,-7.094,-6.22,-2.39,9.69,-10.31,18.25,2.453,-11.94,0.914,1.094,-2.594,-1.898,-29.12,16.5,9.75,-11.44,15.5,2.203,-21.5,17.0,-6.562,-0.2695,-0.7227,0.832,-6.625,-3.0,5.562,8.94,-13.125,0.05078,-24.0,4.72,14.69,-20.12,1.117,10.5,-30.0,2.578,1.766,2.89,-8.44,-4.22,-4.72,7.188,-7.5,-2.188,-5.812,2.0,11.875,-8.06,5.97,9.5,6.812,-7.875,-3.484,-3.547,0.9062,-5.938,-2.969,2.312,-3.453,30.0,-3.36,-2.75,6.156,7.75,-3.75,-10.625,14.06,-3.14,9.5,-3.078,-6.062,3.5
O14980,-0.3125,-9.75,8.81,-5.656,-15.06,-13.5,7.0,-7.625,2.234,5.97,6.094,-0.1133,6.875,0.05664,-0.3516,15.0,-9.81,9.94,-4.875,-19.5,-0.8086,-4.25,-1.789,7.53,10.125,-11.25,1.172,8.25,5.406,-6.562,-15.625,-12.44,-9.5,4.844,-6.5,-7.906,5.875,-5.656,19.0,-18.75,-4.78,20.88,6.312,-9.875,1.367,9.875,2.016,4.812,-2.594,10.75,9.19,-12.06,-12.375,-0.332,10.125,-8.69,4.188,13.81,-14.625,15.125,-2.047,-18.5,10.44,-16.0,-1.094,-20.12,-15.81,-14.625,9.5,-2.75,8.44,-11.625,10.06,0.8594,3.953,-1.609,-20.0,3.14,-4.75,11.625,5.438,-11.0,-9.75,14.125,38.5,1.852,8.31,-5.844,-3.156,-4.188,-22.62,11.125,1.641,-20.5,-13.56,7.375,1.07,-21.88,60.5,12.19,0.08936,-35.25,-14.75,-9.875,-6.75,8.75,4.53,6.53,-14.06,1.766,7.78,-9.94,2.344,-7.03,-3.984,-11.75,-3.281,-2.938,-6.0,2.031,7.28,2.484,1.602,-21.62,10.875,-2.703,3.297,-4.156,-15.06,-1.031,27.88,8.06,7.47,22.12,7.03,-19.0,-8.875,6.406,-11.81,11.81,2.156,7.812,-2.797,4.78,-6.25,0.586,18.0,-14.94,13.875,6.406,2.453,-15.81,11.625,-14.44,2.422,6.406,3.078,10.0,-13.75,3.172,-16.38,-11.31,-0.1377,2.984,15.56,-1.1875,-11.5,-14.75,-1.781,-14.69,13.69,2.953,-2.797,158.0,-10.875,-6.875,-10.19,11.25,36.5,5.47,-4.72,-2.86,7.03,6.344,-5.156,7.844,-8.56,1.234,13.31,10.56,12.81,15.69,4.22,1.422,-23.62,-1.383,8.81,8.19,6.312,4.062,-12.31,3.234,9.0,-8.375,-3.297,9.44,-11.44,-23.25,0.7734,3.031,-18.5,-4.875,-11.125,15.5,-2.86,-11.375,8.125,-8.625,-12.69,1.758,6.438,2.078,-5.156,-15.25,-14.06,-9.625,-5.5,-15.44,-21.62,7.938,12.875,1.195,-5.875,19.0,19.12,1.453,-1.719,-2.469,26.0,2.719,10.0,-10.875,2.14,29.12,-3.312,-7.78,7.344,-13.25,4.47,-6.625,29.38,4.812,10.81,-11.44,-7.812,-7.75
P40925,6.812,-11.125,-1.4375,-0.1504,-10.81,-9.5,0.2676,-6.03,7.22,17.12,4.656,-4.938,3.781,0.1299,4.72,8.19,-0.5156,16.62,10.25,-2.672,-11.375,3.703,8.125,0.4434,1.25,-3.516,1.602,5.97,14.25,-8.44,-6.562,0.953,-3.516,10.31,-4.375,-8.125,-4.97,-3.594,14.69,-6.688,3.938,10.19,-1.031,-2.938,9.44,2.625,0.496,14.875,4.938,-5.875,-6.438,-4.97,3.125,-0.6445,14.125,9.81,10.31,7.844,-3.094,-13.69,2.156,-8.375,3.297,-19.5,4.78,-6.938,8.44,3.375,5.656,-15.375,6.906,-19.38,7.562,-5.844,-2.656,-7.562,-16.88,2.547,-9.69,-2.172,-13.75,0.539,0.965,23.38,39.25,-3.906,7.78,-2.156,-6.5,-10.25,-9.0,3.844,4.78,-21.62,-8.5,5.72,5.656,-0.3125,40.0,0.334,-13.19,-26.38,2.64,-10.875,-4.844,-2.875,0.418,6.5,-21.5,13.75,-0.8438,-1.477,-3.422,-6.75,-11.19,-17.0,-11.31,-0.1826,-0.2754,13.44,7.22,-8.81,2.312,-11.875,-0.2109,6.156,1.719,9.75,-8.06,8.56,-2.312,2.422,-0.1436,16.75,1.43,-16.38,0.3984,1.695,-6.875,-0.332,11.44,-0.5156,9.75,-7.0,7.594,4.78,6.75,-2.188,12.25,1.5625,3.625,-3.89,9.44,-3.453,0.2383,6.594,1.133,-3.047,-1.898,-7.594,-1.523,-9.06,-6.656,6.03,12.94,14.81,-4.97,-21.88,-5.562,-11.125,8.19,-2.312,-3.281,122.0,6.062,-4.438,2.156,3.094,28.75,-3.031,-6.188,-5.594,-4.0,6.312,-5.72,14.625,-1.18,5.594,15.44,-5.188,6.594,-9.25,9.375,2.203,-15.06,10.19,1.8125,-8.81,4.72,4.72,-16.88,13.75,5.875,-2.64,-2.328,3.36,3.688,-15.75,14.875,-4.625,-6.625,-2.14,-9.125,6.406,2.203,-6.0,3.766,9.94,-10.69,-0.6875,5.125,-3.0,-0.7773,-24.25,-6.188,-13.94,-5.562,-2.875,-11.875,-8.125,15.625,-11.0,1.5625,8.19,8.94,5.78,-4.0,-7.906,14.81,4.0,4.03,1.383,7.312,24.75,-2.375,-0.836,4.875,4.844,0.06836,-4.125,19.12,3.734,7.5,-10.81,-8.19,-3.984
P17931,-5.156,-30.38,3.219,-3.953,-10.31,-0.9297,-6.344,-18.5,4.312,14.75,2.125,-8.375,12.875,-1.547,18.0,10.81,-5.97,18.0,21.75,18.38,-10.0,0.586,4.344,-5.188,11.44,7.875,5.938,8.44,5.875,0.03613,-1.117,-23.88,-11.125,-1.734,-1.742,4.625,10.0,-11.81,8.0,-16.12,-7.062,-7.75,-12.19,-4.75,-5.22,-5.75,19.0,11.75,0.7383,10.5,4.03,-17.0,14.125,-0.2578,14.875,-2.531,5.906,3.531,-0.2383,7.53,-0.668,-18.12,1.5625,-4.875,-3.594,-19.88,7.53,-2.938,7.78,-5.656,18.38,-10.81,1.789,3.594,6.406,-17.75,-0.9414,11.625,3.062,5.156,18.88,1.594,-1.406,23.75,21.25,-9.81,16.88,-13.56,-8.375,-3.547,-12.19,8.75,6.28,-17.0,-11.875,10.19,2.672,6.53,58.0,7.062,-4.53,-24.12,-17.75,4.094,-0.7188,2.453,5.406,-5.0,-25.88,26.75,-4.0,-24.12,9.19,-8.25,-6.22,-10.5,-22.25,-0.0742,-10.94,3.297,25.12,-18.0,-3.39,-31.12,-11.56,-13.5,-19.38,3.703,-16.38,-9.69,12.44,19.62,7.97,15.125,-8.44,-26.75,1.641,3.0,-7.75,2.312,-1.875,4.97,-1.5,-8.25,-6.125,1.5,7.0,4.03,-2.562,2.75,-1.086,-12.5,3.406,0.9023,-12.75,-0.7734,2.438,-10.875,7.72,-9.125,-9.69,0.4355,2.688,4.156,24.38,29.62,-14.69,-19.5,6.72,-4.375,19.0,-7.875,3.828,113.5,26.75,8.94,-5.094,-0.9414,36.0,0.4023,7.375,-3.438,-0.1484,8.94,-1.969,10.625,-9.06,-3.219,9.19,-0.504,5.28,4.5,-5.75,14.25,-16.12,13.19,-7.625,-2.36,0.8594,0.953,-7.312,5.812,-0.7617,-11.5,-7.344,16.12,-3.094,-25.5,-0.6055,4.78,8.0,3.89,-13.69,9.125,-9.5,-23.38,-23.0,4.125,-26.75,12.0,9.56,4.125,-3.64,0.1289,-5.812,-5.78,-0.0586,-2.078,-20.12,-1.578,17.5,4.72,7.625,6.812,22.0,12.44,-1.4375,-0.2344,9.375,4.125,1.719,4.688,-4.5,32.0,19.25,0.334,2.562,8.44,-5.47,-5.688,18.25,0.6562,25.38,2.984,3.078,-0.001953
Q8WWI1,-6.78,-9.06,13.44,-7.062,-6.72,-1.633,-0.0703,-7.844,15.81,-0.6016,1.984,4.53,8.75,-5.0,-2.688,8.75,-5.72,-2.312,14.44,3.812,12.69,-7.53,2.86,-12.56,4.22,-14.25,3.828,7.0,3.984,-0.9688,-0.2031,-7.906,-16.12,-0.9883,-15.69,-7.78,-0.8984,7.75,15.0,-18.75,-4.312,10.56,3.516,-7.906,7.25,8.44,-8.25,8.56,3.5,2.188,-3.672,-18.88,-6.688,-5.0,-1.906,-9.94,7.594,8.75,-3.188,-1.406,5.094,-9.625,-1.555,-5.312,-11.125,-8.19,-14.375,3.516,8.81,-3.203,28.75,-12.06,11.75,1.203,2.281,-19.12,-10.31,-12.56,2.234,-3.25,20.62,-6.688,-6.875,9.44,34.0,-7.97,-8.375,-6.53,-5.03,3.844,-21.88,23.12,16.75,-3.734,-12.44,7.594,1.398,-36.0,63.75,0.547,4.0,-35.0,-20.88,5.22,1.578,7.406,-1.234,0.6875,-1.141,-2.797,11.875,-6.312,-1.0625,-13.75,-15.44,-4.906,-10.56,6.375,4.344,-2.86,8.06,8.875,-1.031,-27.5,1.398,0.7188,5.78,-5.03,8.69,-0.3652,16.75,10.0,8.19,22.5,5.625,-9.25,1.07,13.81,-4.406,-3.156,14.25,11.25,9.625,2.656,-15.375,6.875,13.25,-6.844,-1.469,5.72,-3.594,-8.69,9.31,-14.0,4.5,2.578,-4.5,8.19,-3.172,0.4844,-15.94,1.852,15.25,17.75,13.81,26.5,1.391,-5.156,-4.75,-15.19,-6.562,0.66,-1.906,152.0,-0.961,-9.875,20.0,1.586,33.0,-10.625,2.75,-3.375,1.602,-5.062,-0.4785,6.438,2.594,9.31,8.25,-11.5,7.97,18.5,-3.672,12.5,-21.62,2.344,-5.562,3.844,1.391,6.312,-12.81,8.375,3.094,-7.5,8.625,5.594,2.562,-17.75,-8.06,-3.453,-13.31,2.344,-14.625,8.69,-17.0,-16.0,0.551,0.2598,-13.875,-11.94,-1.203,12.0,1.43,-18.12,-5.438,-4.53,0.621,-5.78,-9.875,2.016,-2.11,11.81,-5.125,6.125,5.0,1.047,-0.4414,8.25,12.06,-9.44,3.031,-1.328,7.062,26.25,12.25,-3.125,-2.25,-5.312,-10.19,0.9375,32.5,-0.6562,-3.75,-3.89,-15.31,-15.75
P17812,5.97,11.94,2.11,4.78,10.0,-3.578,10.19,6.094,-5.062,11.19,14.375,12.81,-7.22,-14.81,-18.75,3.14,1.297,10.44,-17.25,14.81,4.688,-4.812,2.969,11.625,6.875,-29.25,9.94,8.125,-12.125,-10.19,0.1895,18.75,-20.0,-1.781,-12.31,-13.75,-8.81,1.594,-3.547,-4.25,-13.5,22.75,-14.875,0.4844,-17.0,-9.44,-27.62,-14.19,8.875,-26.38,-1.414,33.0,-0.3438,2.625,-10.31,-3.0,30.25,-8.625,-12.625,8.56,-3.219,7.97,3.734,-2.766,1.633,-3.406,-12.81,-15.375,2.312,-2.797,3.344,-0.4688,22.12,-14.31,12.81,-17.12,-15.19,2.594,-17.62,7.812,22.75,13.94,9.0,-0.7188,41.25,14.19,11.0,11.19,6.562,0.8945,-22.25,12.69,10.875,-34.25,-5.875,-4.5,-0.4258,-29.38,32.0,1.539,-16.88,-8.81,25.25,10.69,-8.31,-12.44,-8.75,0.578,-7.562,35.0,-24.25,8.56,-5.375,-18.5,-22.38,-11.25,-24.25,1.656,-10.25,15.5,-7.625,0.8477,-6.375,-16.75,-3.781,6.156,3.36,-15.75,-7.03,2.14,-4.97,2.562,13.25,-5.906,14.875,-7.344,0.996,11.25,1.797,4.78,-5.28,-9.0,14.0,0.1348,-9.875,-18.0,-1.758,-14.125,0.1484,-15.19,7.0,-7.094,-8.125,15.44,-12.31,0.66,8.375,6.22,8.19,15.0,16.0,-2.938,13.5,-3.016,3.594,-2.562,-15.5,-10.75,-20.12,8.19,-1.984,3.89,-18.38,185.0,-6.094,-4.75,17.5,-1.672,52.25,-21.38,-3.672,0.3398,-26.0,8.25,14.19,-8.5,5.875,-2.188,6.688,5.0,1.867,19.75,4.188,8.69,-19.38,8.94,-9.81,-7.312,6.0,2.172,5.188,2.688,16.62,1.734,-15.19,0.5625,-13.25,-28.88,-2.281,5.938,-27.12,0.06494,-13.56,3.016,24.12,-14.19,-9.0,3.203,21.5,-18.38,-1.734,2.422,2.062,-0.9766,3.531,-6.28,-21.12,-3.797,3.062,-0.4277,-0.2832,-0.5938,-16.88,-6.312,-15.06,-20.88,2.094,-25.5,-12.31,-15.75,9.0,5.625,19.0,22.38,-0.7227,-4.406,5.312,16.5,-14.69,7.094,38.5,12.625,7.78,-0.5156,-3.188,-8.5
P51153,-3.078,-12.625,18.38,-6.688,-10.44,-16.62,-7.344,-16.88,16.38,11.06,1.297,2.594,16.62,-13.69,13.94,6.125,6.28,19.12,6.375,15.125,-6.312,-5.22,-1.445,-8.125,7.97,-10.25,-3.062,5.938,-7.22,-1.57,-8.0,-18.25,-0.9297,0.547,-3.266,-10.44,2.86,3.172,15.06,-7.03,-3.39,17.0,-5.875,-0.6406,-3.61,13.75,6.656,13.5,-1.203,1.25,13.25,-7.844,16.12,-9.25,3.578,2.11,1.328,5.844,6.28,9.0,0.953,-33.0,-5.03,-8.69,-11.94,-19.25,-6.375,12.875,10.56,-16.0,11.125,-10.31,4.375,-3.11,7.875,-23.62,-20.75,0.254,-11.25,-0.2852,12.375,-2.938,-0.836,19.62,31.25,0.883,17.88,-11.375,-0.2412,-8.875,-5.625,-13.31,8.06,-9.31,-5.844,-2.188,-0.3945,7.375,47.25,12.0,-6.125,-20.12,-15.375,0.672,3.547,-14.375,-3.094,0.84,-19.12,8.375,-5.594,-10.625,3.688,5.125,-14.125,12.19,0.504,-8.5,9.44,3.297,12.375,-7.812,-15.625,-29.75,13.69,8.5,-24.88,4.75,-9.625,4.188,0.2422,-7.656,-1.703,16.5,-13.25,-24.75,-1.898,-4.53,-4.594,-12.625,11.31,8.5,7.906,7.25,5.656,9.06,0.953,2.203,4.75,16.12,20.0,-9.5,0.5,0.6406,-10.875,8.375,2.703,-4.188,-0.4863,-7.844,14.81,4.625,-10.5,4.906,-4.78,-3.812,-2.562,-16.5,-13.5,-12.25,0.7734,-6.47,-12.75,114.0,-0.4531,6.844,-9.0,-10.69,29.25,-4.625,0.6055,-0.293,11.25,6.188,-11.75,7.844,-0.1348,29.0,15.125,-9.25,6.22,3.562,-1.094,8.44,-19.5,25.75,-7.25,2.25,-0.1641,6.28,-11.5,4.72,4.812,-6.47,10.375,4.312,-6.562,-8.19,10.0,10.625,-2.36,6.25,2.172,6.78,-26.0,-22.62,-2.766,18.0,-8.56,-1.672,15.875,12.5,6.78,-23.38,-7.875,-17.38,-16.62,3.062,-30.5,-7.875,8.19,14.81,6.5,2.062,3.812,5.625,-1.203,-13.56,15.94,-9.875,19.88,4.812,-6.25,41.75,16.62,-1.875,-2.844,0.8086,-22.5,-5.375,17.25,8.81,15.75,-7.406,-10.44,2.64
Q9Y6M1,-2.844,-18.0,-2.14,-9.94,-7.47,-4.72,-4.438,-9.56,12.94,5.438,15.31,-3.203,3.438,1.023,6.75,6.875,-1.508,10.125,12.19,8.0,-5.844,4.594,10.625,-11.56,0.7266,-12.81,0.3125,11.375,-10.25,6.0,-1.422,-12.125,-11.94,-0.7344,1.414,-14.31,0.496,-4.406,10.31,-16.88,2.61,7.062,-2.844,1.492,6.72,0.758,-10.31,10.56,6.22,14.31,-7.906,-3.438,3.188,-5.906,3.422,-2.312,17.0,10.25,3.953,3.047,3.875,-17.38,-4.03,-16.62,-14.25,-11.31,-17.25,7.97,2.203,3.688,21.88,-14.875,8.69,-4.0,-11.125,-16.0,-17.5,-4.75,-0.3125,1.258,11.625,4.125,-7.53,19.12,37.25,-7.188,10.75,-0.03125,-5.53,-1.359,-15.44,5.594,8.5,-15.75,-12.94,4.75,1.4375,-14.56,39.25,3.25,-7.72,-26.25,-25.75,-1.086,-10.875,1.5625,-0.1543,-16.38,-14.31,4.875,6.125,-8.94,6.5,-7.78,-3.14,-11.25,-17.0,2.188,10.56,9.81,-1.492,-5.125,-2.125,-34.5,-10.375,-4.312,0.042,-2.078,0.828,-10.19,-1.75,4.47,0.4707,14.75,8.19,-10.75,10.25,1.266,6.22,-3.031,21.12,0.543,10.69,-6.22,-2.188,3.25,-5.875,6.0,8.06,6.812,-8.625,-4.22,9.25,-2.047,3.953,-2.75,-9.625,-10.19,1.406,5.0,0.2734,-3.531,7.906,4.03,21.25,14.25,1.828,-11.625,-8.31,-24.62,-12.06,-5.875,-10.625,130.0,7.844,-1.0625,1.555,12.125,35.25,-4.438,-10.75,-3.344,8.94,1.5625,-10.56,9.875,15.5,9.125,-4.0,-1.4375,2.766,0.6562,15.375,-4.25,-12.0,25.0,7.875,2.688,6.188,0.789,12.69,9.56,4.688,-5.438,2.062,3.172,-11.625,-29.5,8.75,-7.375,-5.22,0.875,-2.266,9.31,-7.562,-20.38,-4.25,7.344,-16.5,-3.438,17.88,-2.89,8.375,-25.0,-13.875,-14.56,-4.375,-7.875,-22.5,3.453,0.04883,-3.25,1.828,17.62,17.25,2.188,-10.06,-12.31,24.38,-6.562,1.297,-1.43,8.125,19.25,11.56,-13.19,-3.094,12.875,-8.75,3.656,24.38,6.438,7.97,-7.0,-3.219,-20.25
O60264,-3.64,-4.562,14.81,3.781,2.14,-7.25,-6.938,-8.25,2.125,8.125,-2.125,-1.984,-13.81,-5.062,-2.062,17.25,2.672,6.312,14.44,-3.688,-0.8867,-1.297,-2.312,-2.047,13.44,-4.22,-0.785,9.375,3.875,-15.0,-4.344,-13.375,-20.88,21.75,-3.516,-8.69,-1.078,4.47,10.69,-9.0,-2.89,18.88,-8.69,-7.25,7.25,18.25,-0.957,8.375,7.0,3.219,7.188,-4.78,7.406,-6.0,-3.094,4.53,12.625,-8.56,-20.88,-2.14,16.5,-12.56,5.47,-4.688,-16.25,-4.312,-0.6562,-13.31,10.31,-12.125,6.844,-12.94,2.469,-1.922,18.88,-16.38,-2.844,-11.375,-10.625,1.3125,-0.1367,6.97,-13.94,14.44,43.5,6.375,4.812,-0.703,-6.0,-0.1992,-14.0,3.875,1.266,-14.375,2.11,2.64,9.44,-22.62,71.5,7.688,-5.0,-41.75,-6.75,3.719,1.8125,13.25,5.125,8.75,-16.12,-0.4766,2.484,-11.31,-1.172,-10.19,-3.719,-7.28,-9.75,3.719,-0.4922,4.812,16.88,9.69,-1.703,-32.5,12.69,-1.18,-0.373,3.5,6.312,-4.125,10.69,7.094,-1.0,-3.219,8.875,-16.12,2.922,0.6484,-1.406,11.81,5.22,22.12,-2.266,5.344,-11.81,12.625,10.75,-15.69,-5.0,4.594,9.625,-14.25,5.5,-5.094,-4.75,8.19,1.281,0.7266,0.8555,-4.72,-6.656,-1.203,5.844,22.62,12.56,4.25,-5.97,-12.19,-6.47,-5.47,4.25,-8.375,9.81,181.0,19.0,4.875,-0.8555,-1.3125,26.62,5.875,-10.31,-16.75,-3.266,-11.375,-5.688,11.94,8.19,-2.312,17.88,-6.812,3.86,-4.312,-5.594,20.5,-12.375,18.5,2.312,-5.375,-6.062,-3.562,-16.75,22.25,-4.688,0.8594,-4.344,7.406,-11.875,-16.25,-1.086,4.53,2.89,-11.875,-1.422,0.7266,-2.016,-24.88,10.94,13.44,-19.5,-11.69,2.938,9.19,-5.438,-8.25,-8.19,-13.75,-8.375,-10.56,-5.562,-7.53,10.69,7.188,3.969,4.188,13.81,3.61,6.906,5.22,-5.78,-5.28,11.75,2.422,-6.0,20.12,10.81,-13.31,6.312,-0.629,-8.75,9.56,18.0,2.297,-9.81,-5.688,-12.625,-4.188
P04150,-3.266,4.156,14.19,8.81,16.62,-14.25,8.25,5.344,9.75,-0.547,-16.38,3.344,-0.289,-0.252,8.625,6.312,2.078,17.12,5.22,-0.875,5.562,9.875,1.3125,-0.4863,6.188,-3.25,0.9883,6.094,-13.625,-8.375,-4.562,-16.38,-6.53,5.312,-9.19,-16.38,21.25,4.375,-6.594,-0.4648,3.906,11.625,-13.0,-9.375,-1.07,26.5,-5.188,-3.875,3.094,15.125,-4.594,-9.0,2.031,-8.06,-9.81,-10.69,8.81,2.594,-2.922,1.75,1.977,-12.75,-4.875,-5.72,-20.88,-12.31,2.312,3.781,5.094,13.25,16.62,-11.94,-0.3086,-3.64,-0.9688,-20.75,-9.0,-1.078,-5.03,2.156,1.406,17.0,-9.25,9.56,29.75,12.5,-6.812,-8.375,-10.94,3.516,-15.875,-0.4219,9.375,-9.875,-0.6055,0.289,-14.375,-26.88,77.0,6.156,-9.19,-37.0,-2.5,12.875,9.125,-1.8125,8.31,9.81,-9.44,18.38,-5.375,-18.38,9.44,-24.25,3.172,-0.1562,-10.31,4.812,-11.625,-21.0,7.938,4.438,-6.594,-23.62,9.375,-12.125,-8.94,15.5,7.72,-2.172,5.938,-10.94,4.562,-1.773,12.06,-6.562,-4.28,1.258,6.688,4.0,7.062,17.88,12.31,4.375,-1.9375,12.19,8.31,-5.72,-11.75,1.9375,13.44,-15.125,9.94,8.25,1.016,11.31,-5.438,9.31,-5.22,-11.75,-17.0,-7.656,-16.25,14.625,17.25,18.5,-3.625,-11.06,-6.75,-1.734,20.0,-4.844,-0.5664,190.0,18.12,-1.102,-5.25,-5.594,30.12,7.78,4.594,0.5312,8.125,-0.836,-5.156,8.875,2.75,3.422,14.81,1.695,9.125,2.172,-11.56,13.125,-13.625,17.12,3.922,6.312,-3.281,-3.781,-12.44,0.496,10.875,0.2441,4.094,12.625,1.336,-30.25,0.7812,4.062,-9.31,2.578,-15.19,2.922,-16.38,-9.69,-12.56,8.94,-18.0,-26.12,3.344,4.72,-0.797,7.906,-4.906,-11.0,-2.922,11.69,-13.0,-3.078,13.06,11.375,4.28,-7.03,15.44,-0.699,2.984,-2.203,2.953,2.938,9.875,12.0,3.531,17.75,6.03,-0.551,6.344,-5.5,-13.125,1.547,31.5,-0.498,-14.44,-11.94,-5.25,2.266
Q9H6S0,-0.9062,-2.688,12.69,-5.156,5.094,-14.31,-2.781,7.47,9.06,8.375,-3.844,-2.297,-6.594,-10.06,0.4258,18.5,-6.594,4.125,7.094,-3.14,13.94,-2.422,-5.97,-8.875,7.906,2.125,4.5,12.75,-2.203,-0.676,-10.06,-19.25,-9.5,15.375,-5.28,-10.19,8.69,7.75,5.5,-13.0,-6.375,8.56,-15.125,-11.44,-6.156,11.0,0.3672,11.19,-0.5586,8.94,3.578,-5.97,9.44,4.625,-5.094,-4.156,2.094,0.5938,-17.0,7.125,24.25,-15.25,10.125,-9.5,-15.25,-1.5625,-7.72,-12.375,13.0,4.812,14.94,-9.375,2.75,-4.812,5.812,-15.81,-3.25,-9.625,-5.25,0.249,-6.312,6.938,-15.625,6.406,47.5,1.3125,-3.328,-10.0,-6.594,0.4531,-23.62,14.875,2.062,-13.25,-2.453,2.375,-0.1875,-36.25,76.5,10.69,-9.06,-41.75,-12.06,10.19,2.688,7.5,4.97,13.81,-7.47,10.06,1.836,-12.94,7.78,-5.094,-1.258,-8.125,-7.53,9.75,-0.7344,-13.31,21.88,7.03,-1.453,-33.0,2.672,-6.938,-0.3867,-3.406,6.094,1.0,18.5,2.844,-0.293,12.0,4.75,-18.25,1.75,1.672,3.375,11.81,2.281,23.88,5.625,0.6016,-12.625,30.0,10.125,-18.75,-4.562,-0.1582,-2.328,-18.62,2.078,-2.89,-0.8906,8.875,3.844,6.406,13.75,-9.125,-14.0,8.375,-7.72,20.88,13.125,13.75,-10.625,-11.06,-4.938,-6.625,7.125,-12.19,2.562,221.0,20.38,-0.7344,-0.1836,-2.766,22.12,12.69,-1.875,-1.664,-4.97,-7.906,-3.469,10.19,-2.875,-1.367,20.38,-2.547,0.672,5.594,-16.12,27.75,-19.12,11.06,3.297,-2.812,-3.062,3.5,-19.75,12.75,1.844,-6.438,-1.6875,11.44,-1.3125,-10.875,-8.44,4.312,-4.125,-2.125,-6.406,-5.438,-8.625,-28.88,-0.5,9.625,-23.75,-17.62,-4.53,11.875,-0.8516,-5.47,-8.875,-15.625,-7.438,-4.938,-14.94,-5.875,15.44,5.188,-4.25,5.312,17.12,-2.156,12.0,9.94,5.25,-7.22,18.0,6.97,5.094,20.38,10.94,-11.875,1.656,-1.414,-9.19,0.5,24.5,6.688,-13.875,0.4336,-9.69,-3.312
P63000,1.094,-8.44,7.03,-4.812,-4.28,-6.78,-0.06055,-4.938,6.875,8.125,11.125,3.094,-2.297,5.062,-5.312,8.25,11.0,12.25,0.3477,-7.53,-4.625,-1.156,11.56,-1.602,-3.406,-17.12,8.875,-5.688,0.5273,-3.188,-11.875,-2.703,0.9375,3.688,-7.78,-19.88,1.094,-3.234,4.594,-4.125,-16.5,6.78,-6.156,11.19,4.22,-7.28,-7.0,1.328,-12.06,5.47,-2.89,7.156,2.781,12.125,4.938,1.625,19.25,9.25,-1.203,-2.906,8.81,-0.9023,6.938,-15.81,9.0,-8.75,-3.89,-6.375,7.344,1.359,11.06,-20.75,12.75,-10.25,3.094,-6.0,-12.19,5.625,-3.14,13.375,-1.531,6.22,-10.375,10.0,28.88,-1.719,15.0,-7.688,2.797,-8.19,-14.44,12.0,12.56,-25.88,1.375,4.97,-1.172,-8.44,38.5,15.25,-4.062,-27.62,-8.125,-6.562,-1.727,10.06,-4.812,-9.19,-21.0,4.094,-2.5,11.0,-0.1562,2.516,3.36,-15.75,-2.234,2.578,-7.53,15.25,14.875,-4.938,-2.078,-21.12,8.56,7.438,6.625,-3.516,1.219,-1.469,7.03,-1.219,-0.957,15.31,1.461,-17.75,0.5273,2.188,-2.719,-4.125,1.82,-2.766,10.25,-6.094,4.406,-3.719,8.06,-9.06,8.5,-3.344,2.36,-3.938,1.734,-2.312,-9.19,6.22,2.781,7.03,-0.1621,6.47,4.812,-3.453,-8.69,5.844,8.375,13.06,-13.44,-15.06,-12.625,-12.44,-6.0,-3.016,-16.5,156.0,-4.75,2.39,7.53,6.0,39.5,-10.75,-11.375,0.922,-7.062,7.094,-5.062,8.44,7.0,-2.86,9.56,10.5,4.062,9.06,15.69,-6.562,-15.31,5.906,0.1758,4.22,-2.156,5.344,-15.125,11.875,14.125,-9.25,-9.19,1.5625,0.4746,-23.5,-0.1094,-5.125,-15.875,5.094,-14.31,-0.02002,9.5,-4.656,-0.2422,-4.5,4.312,2.844,10.06,-4.312,-7.5,-16.75,-6.78,-11.44,-10.25,-14.375,-16.75,9.75,-11.0,0.2852,0.879,1.047,9.31,-8.0,6.562,-6.188,7.375,1.859,1.695,-4.844,8.625,33.75,-0.535,-2.688,7.625,1.398,-2.578,-13.06,31.75,12.5,-0.992,2.5,-5.78,3.547
P35625,12.125,6.125,12.5,27.5,23.25,-4.125,-0.992,7.0,20.75,19.88,-8.44,3.438,1.656,3.5,-3.86,12.06,12.0,12.56,10.75,-9.0,2.062,-1.859,8.875,-2.078,8.75,-8.0,-10.0,0.6562,38.5,-2.969,9.5,-8.125,-7.656,11.94,-18.12,-12.56,3.406,10.25,-1.57,2.766,-10.44,29.0,-14.0,-1.945,16.0,-0.2812,-5.47,-7.562,5.625,-11.0,-10.125,-4.656,-3.047,-16.0,-7.53,-9.125,5.03,4.062,-4.094,14.625,23.62,-15.69,-6.312,3.11,-9.875,-7.844,3.656,-2.0,12.25,-12.31,11.5,7.688,-8.56,-26.0,3.703,-7.97,-26.0,-4.28,-20.75,11.375,4.97,19.88,0.7656,-8.81,6.625,4.844,-5.062,-23.75,10.44,8.375,-30.75,15.625,10.06,-31.0,-0.508,0.496,4.875,-11.875,49.0,5.47,-24.0,-26.62,7.75,-4.406,16.88,10.875,6.812,6.812,-20.62,7.53,-24.0,-3.578,-19.12,9.69,-2.484,-1.984,-13.44,11.69,4.438,-8.06,13.375,15.19,8.875,-15.81,-11.06,4.5,0.3027,4.53,12.44,29.25,2.656,-7.594,4.625,15.31,-6.125,1.211,0.25,-13.25,0.3281,-2.938,-2.562,21.0,-2.734,-2.312,19.5,-12.875,2.188,-3.266,12.625,40.0,1.148,-2.797,-3.844,10.44,-17.0,9.75,11.25,24.75,-3.672,-10.625,-2.5,-4.25,-3.469,7.656,4.0,24.75,6.125,2.172,-9.31,8.875,2.906,2.219,-6.5,97.5,-2.344,-7.062,0.2217,-11.5,17.88,7.125,-9.5,-14.875,-14.81,-13.25,-7.688,13.69,16.12,13.56,10.375,-2.094,-3.516,3.688,-5.375,25.62,12.625,22.38,9.31,9.625,-9.94,-1.1875,-9.19,5.125,2.938,-16.0,9.125,3.906,-3.234,-28.5,3.094,21.0,-8.125,-10.375,2.422,-4.375,-20.75,-8.94,20.5,9.19,11.44,4.47,-6.156,24.88,10.5,11.375,-6.312,-8.69,-17.62,-11.44,-6.28,-14.94,3.297,14.69,3.078,-11.06,21.25,-11.5,10.625,-6.312,-0.7773,0.000977,-6.688,8.44,17.75,20.62,6.562,4.75,10.0,4.938,-16.38,3.766,17.38,2.344,-14.56,17.12,3.188,-8.375
P17858,0.754,-11.81,4.03,-4.188,-7.53,-14.625,4.0,-27.38,13.5,7.78,7.25,3.64,0.578,-3.625,1.734,14.69,1.734,19.38,1.75,-8.25,-0.668,-7.938,-2.047,-1.391,10.69,-2.328,0.332,4.03,10.69,-8.94,-8.375,-16.25,-6.75,7.53,-6.094,-0.7656,-4.438,-0.9336,15.125,-22.25,-2.734,18.38,6.562,1.453,14.06,10.75,6.03,8.875,-5.906,6.625,4.375,-3.922,2.14,-0.539,13.25,-4.562,2.36,15.69,5.594,0.11816,-4.062,-13.31,2.516,-11.31,-4.344,-9.375,-5.406,-11.06,4.156,-9.75,8.0,-6.906,7.688,-1.836,3.828,-9.625,-11.875,0.8594,-4.406,6.0,11.25,-4.5,-6.75,18.88,40.5,2.25,3.188,-13.31,-3.75,-10.875,-8.31,3.562,1.469,-16.5,-13.69,6.03,1.141,-3.406,46.25,5.0,-8.81,-32.75,-8.875,-12.0,-2.578,-3.734,4.688,5.78,-6.656,7.97,1.266,-7.344,-10.25,-4.125,3.797,-9.06,-10.44,-2.328,-5.625,7.156,11.44,-5.156,-2.39,-21.62,12.56,8.69,6.094,7.78,-12.875,-2.875,13.375,-7.75,5.0,18.38,3.75,-21.88,-6.438,6.844,-2.64,-1.297,2.39,1.328,-0.6836,5.22,-3.172,8.06,14.19,-2.375,3.906,8.19,4.5,-8.875,0.207,-11.81,-10.94,11.56,5.125,3.812,-8.25,3.719,-10.44,-3.031,-7.22,4.344,10.19,0.2275,-13.875,-18.25,-6.938,-16.62,10.81,9.375,0.879,118.0,-3.375,2.469,-2.234,8.31,32.75,-5.28,-3.328,-6.375,5.438,-9.875,-5.125,6.75,-0.629,9.25,16.38,0.6953,5.5,5.938,7.375,7.875,-16.62,4.22,1.375,6.75,3.547,9.25,-21.75,11.06,9.5,-3.562,-0.10547,-0.59,-11.44,-10.81,10.875,1.828,1.477,1.781,-13.69,9.81,-5.28,-18.38,10.75,3.219,-11.125,0.2227,6.188,11.5,-10.69,-10.75,-0.91,-6.406,-5.22,-14.25,-11.625,-5.78,16.5,-8.5,5.125,1.3125,-2.281,3.703,3.094,-6.812,9.75,0.4492,-1.156,6.375,0.371,24.0,1.141,-7.97,3.953,5.906,-4.594,-14.375,17.0,3.312,9.375,-3.531,-2.453,-0.289
Q99848,1.008,-12.19,11.31,5.375,11.0,-23.75,1.094,3.5,2.562,-7.094,-14.31,-11.94,15.125,-4.28,22.5,4.03,-11.875,28.25,10.44,-1.258,-2.438,4.906,5.938,-8.81,9.44,-9.44,8.94,11.94,2.266,-8.69,-13.375,-23.25,-6.875,-0.25,-2.89,-10.875,20.62,-5.125,8.375,-16.12,7.47,3.703,-7.25,-16.12,1.3125,25.5,-6.938,7.562,-3.219,25.75,-2.062,-11.0,-10.75,-5.188,12.125,-13.56,1.008,3.234,-14.375,-4.5,-16.0,-9.44,-2.203,3.797,-18.88,-20.5,9.19,-21.62,1.953,5.875,23.0,-21.62,9.31,18.75,12.25,-19.5,-8.19,5.688,2.438,10.625,5.406,11.125,-12.19,32.75,34.0,-1.258,-1.289,0.953,-17.0,-15.25,-18.62,4.28,-3.766,2.375,-5.656,-0.3867,-2.484,-14.875,56.0,12.06,7.656,-30.5,-18.88,1.984,-11.625,-10.0,15.25,3.406,-13.75,5.094,15.375,-25.25,20.88,-26.75,-12.94,-4.938,-6.688,9.0,-9.44,-9.375,-15.5,-7.625,4.97,-40.5,9.125,-13.0,-22.38,19.25,-0.8555,10.69,10.5,0.248,13.125,14.06,3.25,-21.5,-6.5,2.188,4.812,-5.75,9.81,9.25,-6.5,14.125,2.484,17.25,22.5,-2.031,-9.81,-0.547,6.5,-28.5,9.5,-0.4219,3.156,-2.578,-11.81,4.688,5.062,-11.19,-17.5,-29.38,-10.75,7.594,25.62,19.88,-1.891,-27.12,-3.36,-22.38,15.875,-7.594,5.75,157.0,29.88,-2.938,0.0879,11.25,16.88,15.69,18.75,-0.125,26.5,8.31,-9.06,14.875,-5.406,10.0,4.75,0.4258,14.56,-6.812,-14.625,5.938,-8.56,15.25,11.69,8.5,-9.0,0.711,-5.625,1.625,9.81,6.625,-0.8047,7.125,1.172,-51.0,0.5156,-5.906,1.531,-6.0,-12.19,-1.047,-10.0,-16.5,-11.75,14.94,-7.97,-33.25,16.25,-4.72,-1.531,-9.5,-13.94,-21.75,2.875,15.5,-17.88,12.19,19.62,-1.797,0.04736,14.81,22.5,6.188,10.125,8.81,-3.016,-3.734,2.453,-8.19,4.312,23.25,11.0,-10.56,4.188,-9.44,4.72,9.44,40.75,-10.125,-2.219,-13.06,-8.125,5.0
